321 64
142 0.015473839 -0.4236584 -0.423958 -0.20893395 -1.0683731 -0.022891259 -0.3389662 -0.058419548 0.3569784 0.3222176 0.3454599 0.409901 -0.27405143 -0.2741301 -0.1864399 0.5736331 0.2115672 -0.10725781 -0.6511397 -0.51537293 -0.623698 -0.37067154 0.39051855 0.035620116 -0.03250599 0.67917705 -0.12835997 0.5042978 0.73595583 -0.13212714 0.010068731 -0.46430415 -0.17954314 0.71807164 0.3283312 -0.46882594 -0.53001595 0.02004604 -0.09309204 -0.24749847 -0.015068227 -0.46366757 -0.42642513 0.1672308 0.08621343 0.28508916 0.2493209 -0.47786424 0.4506591 0.11596384 0.022672461 0.368773 0.60489357 0.56593865 0.19700722 0.05739123 -0.08197301 -0.48455918 -0.22883916 0.869494 -0.6728492 0.35052255 0.8739918 -0.45721433
177 0.04672534 -1.321569 -0.47917616 -0.01821417 -0.35578325 -0.2568098 0.03475406 1.1253446 0.1874791 -0.032180924 0.24480389 -0.48531738 -0.7397158 0.19159268 -0.07317144 0.047738165 -0.1302859 0.2381713 -0.3943726 0.34226662 0.070917755 -0.29532543 -0.09087812 -0.68062055 -0.39343095 -0.07062016 0.07769525 0.31499776 1.1294721 -0.9499641 0.28745872 -0.20221555 -0.011510203 0.4178645 -0.18809707 0.025582314 -0.17519158 -0.46792582 0.29226807 -0.024610193 0.1017873 -0.65376234 -0.27855003 0.4167531 -0.63971335 -0.17445235 0.11416031 -0.47556898 0.06379903 -0.1349951 0.2819608 0.2866579 0.3924947 0.2889996 0.06367586 0.049955785 0.07320729 -0.4880076 0.015529986 0.18876079 0.064550236 0.67444766 0.16790247 -0.105926275
256 -0.22836329 -0.7388675 0.021123257 0.43888435 0.32784003 0.10667332 -0.28297576 0.22590174 0.9769269 0.5579422 0.061749507 -0.5791767 -0.12532233 -0.122109 -0.16933149 -0.06207738 0.009270298 0.07395549 -0.7795765 -0.60627145 -0.38455686 0.044990424 -0.036684066 0.29560438 -0.2812459 0.48418257 -0.028903123 -0.34652707 0.44417045 -0.5360101 0.5893947 -0.4690725 -0.32404345 0.7308125 0.28842032 -0.34841734 -0.09941695 0.22755148 0.35707375 -0.15163891 0.113900445 -0.09863524 -0.16912878 -0.4360643 -0.8050599 -0.161428 0.17670244 -0.64158374 0.39735532 0.42692798 0.69825417 -0.06659895 0.17521273 0.20412828 0.70825917 0.44288328 0.6629584 -0.5054501 -0.53670794 -0.24536622 -0.20220433 0.18728119 0.6085016 0.18505338
141 0.0019666373 -0.45219085 -0.4134188 -0.18831798 -1.097022 0.051350597 -0.3675833 -0.07100832 0.32113558 0.32466343 0.3151268 0.37126553 -0.18240705 -0.25581133 -0.17583938 0.5826343 0.24357934 -0.08662921 -0.6494085 -0.51429063 -0.60430086 -0.30140635 0.412719 0.0124453865 0.105519 0.70045686 -0.1762395 0.53514045 0.74810076 -0.13204533 0.013001934 -0.38685757 -0.112724826 0.7218914 0.36392313 -0.44373474 -0.45096558 -0.05911446 -0.07261992 -0.11588587 -0.0022768273 -0.4583529 -0.44954064 0.14729956 -0.01868532 0.23975748 0.25930148 -0.43781742 0.50973743 0.119584635 0.0031563418 0.3942081 0.6258426 0.5042229 0.15929545 0.13098119 -0.06238817 -0.46053135 -0.27707246 0.8593735 -0.709336 0.30389786 0.808095 -0.55265397
176 0.05654137 -1.3232988 -0.43285483 -0.028213544 -0.36844304 -0.1380723 0.020327771 1.0858347 0.20240244 -0.087890714 0.3131348 -0.5768696 -0.7051969 0.19833396 -0.07873484 0.029527482 -0.069493435 0.18065399 -0.45219037 0.3666342 -0.025189841 -0.2549604 -0.18602698 -0.60265416 -0.3456259 -0.1270132 0.15205188 0.2968157 1.1417137 -0.9948508 0.2647307 -0.15532552 -0.038152553 0.4210328 -0.22747993 0.14051329 -0.19233249 -0.58755535 0.27062756 -0.03751052 0.07777499 -0.6300308 -0.29502037 0.42860258 -0.63112575 -0.11527481 0.13117166 -0.44695148 0.054744914 -0.16267018 0.23781648 0.26355407 0.39556405 0.28053892 0.057922915 0.10294693 0.099130735 -0.49168155 -0.0028044204 0.15846364 0.021897938 0.7186531 0.2549266 -0.15778041
255 -0.20964977 -0.70359766 0.035952844 0.40437925 0.2541009 0.13707909 -0.22658277 0.3381678 1.0518372 0.65818495 0.083141714 -0.5160685 -0.11917722 -0.20735739 -0.24945277 -0.05613917 -0.015135302 0.03875936 -0.73037475 -0.64166003 -0.36974815 0.07170835 -0.018270457 0.289852 -0.29771918 0.45645118 0.07457082 -0.28284574 0.3818491 -0.49311456 0.5843639 -0.46523124 -0.38281327 0.7553477 0.22633103 -0.39547542 -0.05085954 0.20536762 0.3447506 -0.105518684 0.18320708 -0.14416657 -0.1531946 -0.3713063 -0.82360554 -0.21431808 0.19789231 -0.66735446 0.45369014 0.43120614 0.6634108 -0.10819352 0.18514153 0.21772416 0.67538 0.48922664 0.64029145 -0.51605546 -0.49204403 -0.32800183 -0.1575747 0.18314227 0.589708 0.20500165
290 -0.15820993 -1.2076794 -0.21025828 0.5173174 -0.24805355 0.003379814 0.043295477 0.44944468 0.14443873 0.87289476 0.18609029 -0.13465399 -0.0009188437 0.47230378 0.17561758 0.2811096 0.036608573 0.525492 -0.65244496 -0.51223874 -0.41074276 -0.122284204 -0.45079714 0.62881374 -0.21023627 -0.18201232 -0.17273904 0.5758421 -0.054140996 0.3356637 0.34526414 0.2441381 -0.103897765 0.1288953 -0.043887287 0.0183217 -0.06924947 -0.45376962 0.27197218 -0.27635047 -0.39538303 -0.8277976 -0.73907644 -0.21481118 -0.11136428 0.03897323 -0.6498309 -1.016161 0.65405756 0.37079525 0.1314524 0.42696303 0.03083317 0.5176264 -0.061355364 -0.308323 -0.25134984 -0.3374984 -0.3665962 0.33685142 -0.2442909 0.6321085 0.26672205 0.3697961
289 -0.15478331 -1.2266289 -0.2931844 0.49649614 -0.25462654 -0.061993685 0.011820872 0.46588197 0.16642049 0.92190117 0.16581315 -0.17769364 0.0317564 0.5646396 0.22828911 0.36275345 0.0625989 0.5899593 -0.6358373 -0.5015837 -0.4405599 -0.122586235 -0.54995394 0.6248985 -0.14604682 -0.18362866 -0.06617435 0.5816842 -0.01702556 0.35035557 0.3201434 0.2275287 -0.121383384 0.12546621 0.0004079055 -0.01984073 -0.058255393 -0.39343834 0.20064487 -0.33043024 -0.258412 -0.8225961 -0.6694772 -0.2692936 -0.15283006 -0.014083936 -0.6629749 -1.0156095 0.6397355 0.37311295 0.086642794 0.4361605 0.082595654 0.4915801 -0.044077836 -0.30892515 -0.25984803 -0.2772998 -0.36676717 0.3302191 -0.2726441 0.5603498 0.20116992 0.2918739
212 0.123994924 -0.5604027 0.34520832 -0.34146857 -0.2832194 -0.23614788 -0.2600154 0.54924774 0.43819922 0.32234293 -0.37288737 0.08039737 -0.7021882 0.044984285 0.4791811 -0.020566823 0.32636547 -0.5347342 -0.4237082 0.2754195 -0.26366922 -0.3038556 -0.046549093 0.25943795 -0.5367732 -0.18176244 -0.31950635 0.67734796 0.72124016 0.1557221 0.6871195 0.33874887 0.0065427776 1.1684908 0.40670967 0.1358694 0.2707605 -0.15148531 0.2757841 -0.6902664 -0.6115937 -0.34937853 -0.1261528 -0.5975597 -0.8248321 0.025792323 -0.040034752 -0.3586827 0.67107534 0.1078131 -0.37966284 0.15171255 0.20896566 0.5129431 0.71115816 0.4155973 -0.418657 -0.7505372 0.078659914 0.1662034 -0.2062821 -0.20410338 0.17859766 -0.054125104
22 -0.61238295 -0.29386622 -0.2911375 0.071201764 -0.18693815 0.100602575 0.03876008 0.36116943 0.43739474 0.063806765 0.33633277 -0.102786355 -0.25149727 0.15817948 -0.18319918 -0.38401777 -0.059974756 -0.0069699427 -0.8713826 -0.03179345 0.50662696 -0.7636665 0.18188542 0.24430177 0.40394482 0.30314165 0.088600636 0.75473785 0.19596443 -0.17229608 0.63191634 0.449281 0.30533668 0.8075862 0.61446905 0.13179281 -0.24503963 -0.27165842 -0.109091096 -0.5729163 0.14867175 -0.82358164 -0.2600133 -0.40269712 -0.28805283 0.23901895 -0.67389095 -1.0043064 0.056571815 0.26955646 0.761533 -0.14549744 0.31387183 0.5817134 0.2144713 0.15391378 0.47170147 -0.23683503 0.5182003 0.11715256 0.2809124 0.22799544 0.63696516 -0.8485308
21 -0.7113392 -0.33264214 -0.34362116 0.05252857 -0.20918587 -0.012460572 0.04473979 0.3194842 0.54812706 0.087276064 0.35943612 -0.09119474 -0.22002788 0.10301388 -0.20581333 -0.28334552 -0.038768616 -0.0360212 -0.8418671 0.047055952 0.47920766 -0.7512842 0.21419354 0.15371272 0.44264412 0.27868366 0.11303871 0.7822272 0.1820664 -0.1016954 0.62307006 0.46998614 0.27362117 0.8332745 0.5682752 0.12956062 -0.20660357 -0.2936148 -0.10070037 -0.54123026 0.14770551 -0.7793063 -0.329216 -0.33305424 -0.30717742 0.26120988 -0.65696377 -1.0485445 0.07987689 0.2463928 0.8558656 -0.2140663 0.28600526 0.6336583 0.25193295 0.11985981 0.44008806 -0.19826044 0.5158836 0.08621815 0.261179 0.13176997 0.56686956 -0.78550404
211 0.1640728 -0.651897 0.2818917 -0.37373662 -0.24055797 -0.23210654 -0.19972719 0.4876946 0.49138737 0.33857545 -0.47919783 0.06485014 -0.665376 0.08306406 0.48680207 -0.08219737 0.33434388 -0.473199 -0.4070296 0.30627006 -0.24580283 -0.3900536 -0.053186983 0.2789986 -0.60060686 -0.1415199 -0.29446954 0.71176994 0.6977696 0.10222533 0.59245706 0.2558611 -0.026867472 1.130547 0.49471107 0.088194825 0.27809328 -0.17918396 0.18309198 -0.6708836 -0.65110666 -0.34205624 -0.22031629 -0.57648605 -0.7964856 0.01163887 -0.082317226 -0.32614562 0.64560467 0.029431017 -0.36262017 0.0689618 0.13927181 0.50187486 0.7677625 0.42324746 -0.41097075 -0.7970509 0.1334146 0.21948414 -0.2569653 -0.25521708 0.19568767 -0.037376866
235 0.47388187 -0.31215116 -0.39399588 0.03598891 -1.3524581 -0.10295895 -0.18568382 0.057988297 0.34634623 -0.24121106 -0.1295668 0.015024281 0.075733826 0.0805962 -0.16766745 0.42187822 -0.49496204 0.06843164 -0.8898399 -0.13296974 -0.26759952 -0.4429391 -0.110625 0.39580074 -0.49825335 0.2613481 0.09150817 0.47836262 0.6942215 -0.04338395 1.145034 -0.051932123 -0.56312907 -0.061949234 0.04521991 0.42280862 0.35515723 -0.20312901 0.33276197 -0.5094288 -0.08781241 -0.7345003 -0.55666447 -0.37900478 -0.7347764 -0.33825532 0.08995205 -0.30230305 0.6422905 0.19460237 0.8638015 0.10815361 -0.32204905 -0.4062505 0.3209689 -0.2064884 0.507165 -0.4678924 0.18330137 0.29614225 0.14487532 0.1247887 0.2523848 -0.18810955
91 0.6327752 -0.45139864 -0.42736447 0.21381886 -0.34349817 0.5449377 -0.18477513 0.9457847 0.24347496 0.16359144 -0.2166208 -0.04705942 0.060750313 -0.3395207 -0.13184382 0.24750492 -0.312562 0.056346025 -1.4646765 0.051252745 -0.59835225 -0.07439871 0.27486715 -0.45238993 0.22325525 0.003441654 0.019376745 0.18930277 0.65955156 -0.24775963 0.32238108 0.45097068 0.40824616 -0.011925388 0.56480163 -0.5822001 -0.48072994 -0.2001789 0.30655614 -0.9177202 -0.16162574 0.06365306 -0.50495726 0.065406226 -0.3556673 -0.0007064405 -0.45054632 -0.82401663 0.5028743 -0.04679595 0.41986164 0.70620614 0.020803034 0.13311158 0.6730005 0.27393043 -0.34746426 -0.19186136 0.23693728 -0.23922722 0.0062561175 -0.34357652 0.7553322 0.25734976
1 0.14090843 -0.49033195 0.17603718 -0.14560728 -0.63076156 -0.13428517 -1.0769331 0.41266352 0.61084604 0.2133032 0.12691978 -0.094583504 -0.08203971 -0.4473133 -0.08404717 -0.31359547 0.75050074 0.320913 -0.42533123 0.20550266 0.072451994 -0.19769242 -0.5556451 -0.25255594 -0.18934153 0.15955475 0.3302807 0.7521567 0.64471966 -0.24909121 0.5815946 0.25478727 -0.08788123 0.22201172 0.35642356 -0.1081835 -0.22831585 0.25781274 -0.03789065 0.1540042 0.2051356 0.259963 -0.015495111 -0.40769368 -0.15992402 -0.40002286 -0.91528225 -0.676888 0.7288983 0.05100692 0.94291186 0.4210897 -0.31140172 0.27237648 0.15067664 0.12484964 -0.42267013 -0.8479419 -0.33742648 0.46237084 0.060570378 0.77070063 0.6179868 -0.006575035
234 0.48663986 -0.3585087 -0.34810218 0.027614467 -1.2395287 -0.101466745 -0.21333012 0.016889157 0.35699204 -0.25294435 -0.07698168 0.03260893 0.10943729 0.02960646 -0.26247323 0.44722208 -0.56760335 -0.013008094 -0.9176944 -0.086569324 -0.28345385 -0.44724074 -0.13476954 0.41296902 -0.5002509 0.24590828 0.0006911109 0.48156452 0.76785517 -0.022288822 1.0685836 -0.04900295 -0.5176904 -0.10317518 0.032008782 0.4574978 0.39686 -0.24709249 0.3330524 -0.51402354 -0.053336002 -0.7021036 -0.51834655 -0.40779194 -0.8073071 -0.42688087 -0.0013774236 -0.2787441 0.75026566 0.18958692 0.8074917 0.08372176 -0.2626879 -0.36450022 0.3436801 -0.27216423 0.5367307 -0.36328673 0.15143755 0.34474677 0.14121117 0.18079175 0.30947715 -0.24547406
0 0.1705663 -0.3849783 0.16596723 -0.09837929 -0.58366555 -0.081455484 -1.0948557 0.40281653 0.560924 0.20237134 0.10517209 -0.15479143 -0.095749505 -0.48118663 -0.13238177 -0.29225317 0.8316898 0.357756 -0.4071455 0.22790577 0.0745748 -0.24961163 -0.5232801 -0.28050885 -0.24933174 0.20622909 0.2656003 0.7328092 0.62534475 -0.3521007 0.58881843 0.26629183 -0.091095455 0.2557003 0.3254704 -0.086556554 -0.15057851 0.28489622 -0.08810303 0.08815976 0.118084006 0.19180992 -0.1300337 -0.45841888 -0.059244502 -0.42185202 -0.9409057 -0.6519659 0.7778645 -0.03411105 0.9025686 0.48674977 -0.29629853 0.3030813 0.13331363 0.10659492 -0.3271424 -0.8579201 -0.35404402 0.40340742 0.04612009 0.8195981 0.63583124 0.003659246
90 0.6504421 -0.50184476 -0.29453123 0.2327939 -0.31459492 0.45333457 -0.18261304 0.92301804 0.27599305 0.13545446 -0.19389266 -0.0063025057 0.13137852 -0.3516459 -0.12607473 0.28575292 -0.32500744 0.10083942 -1.4583184 0.05937091 -0.571014 -0.15089767 0.1825431 -0.4594094 0.20970884 0.04620123 0.067198426 0.16132396 0.7156764 -0.25479636 0.18414785 0.38237065 0.4686608 0.0012788675 0.60118264 -0.62307036 -0.44927537 -0.22698574 0.25550762 -0.8793331 -0.18158136 -0.019307828 -0.5530638 0.05815231 -0.3776806 -0.027525136 -0.45610258 -0.8413219 0.54422003 -0.008407109 0.3702748 0.6567152 -0.03399242 0.08904692 0.69155234 0.31174028 -0.35383296 -0.13964511 0.29111156 -0.20905127 0.06204956 -0.38105607 0.8410055 0.2698446
178 0.055223767 -1.2928773 -0.44269162 -0.15393002 -0.28946486 -0.15886328 0.02433921 1.1034358 0.24849164 -0.09636111 0.33246896 -0.6513799 -0.6873622 0.11452489 -0.100640215 0.09914085 -0.060668185 0.1544447 -0.37175304 0.31818956 0.008866538 -0.30372623 -0.16793787 -0.6061775 -0.34139603 -0.005690918 0.06973073 0.32444063 1.1109016 -0.85668683 0.33019784 -0.17845486 0.034693453 0.42659512 -0.2516168 0.060028315 -0.13999328 -0.6083187 0.2682166 -0.053429287 0.120114535 -0.6417212 -0.35581115 0.51423943 -0.6499623 -0.15897632 0.07501612 -0.4496355 0.078914076 -0.24091193 0.23622636 0.24183904 0.3921464 0.23575927 0.113917686 0.06475563 0.07831005 -0.44374394 -0.03651767 0.19763446 0.07408981 0.7037412 0.16322169 -0.09621156
143 0.047947913 -0.49877122 -0.3401966 -0.25257993 -1.096872 0.08521441 -0.37066355 -0.09441695 0.28659973 0.2975339 0.31732902 0.43585825 -0.24369925 -0.31560752 -0.2230564 0.58167046 0.25736043 -0.0811245 -0.61491084 -0.50220656 -0.59563124 -0.36167613 0.41751382 0.026924625 0.018826865 0.678682 -0.21655437 0.4382301 0.65782225 -0.13400024 -0.02150411 -0.45025572 -0.086059034 0.6858984 0.35536826 -0.42885458 -0.39208677 -0.07082297 0.010427354 -0.21029688 0.083668165 -0.47539735 -0.40594897 0.24425247 0.008331365 0.2905324 0.16445996 -0.5277525 0.5084859 0.15838817 0.014483125 0.32026583 0.5905883 0.507246 0.1561861 0.16613424 -0.03605272 -0.54501903 -0.25463164 0.91108984 -0.68701965 0.28088292 0.78891 -0.5231043
257 -0.15777762 -0.7254255 0.038195092 0.46364546 0.32186872 0.12700684 -0.3165963 0.28048468 1.0047181 0.60948795 0.10222893 -0.568462 -0.138255 -0.26156288 -0.23471132 -0.052367397 -0.011371487 0.10579142 -0.751276 -0.7303055 -0.34339145 0.11116243 -0.018008891 0.2813359 -0.3637482 0.48905247 0.072956264 -0.32447955 0.4349652 -0.5099322 0.63179314 -0.4697005 -0.34011725 0.73949647 0.24196063 -0.3772236 -0.08231695 0.18262659 0.32510513 -0.14258276 0.18700339 -0.22317342 -0.17155735 -0.38285872 -0.75511324 -0.20860402 0.13452074 -0.60666794 0.4364081 0.39129043 0.60471195 -0.15322751 0.10029793 0.27232194 0.6276076 0.5248873 0.5954306 -0.53460515 -0.4313492 -0.28019184 -0.16957335 0.08951033 0.5410633 0.13397528
291 -0.18273428 -1.159688 -0.21156646 0.52857035 -0.3212593 -0.060951345 0.06827936 0.47687373 0.15716878 0.8621329 0.16693124 -0.20947292 -0.014021145 0.50969154 0.19023366 0.38218644 0.07801882 0.52901953 -0.6989786 -0.55764365 -0.44467267 -0.14845581 -0.5214241 0.6142974 -0.22314577 -0.14879832 -0.09624207 0.6050179 -0.07053745 0.30011255 0.35807693 0.2875861 -0.15861268 0.10504348 -0.059351455 -0.050306093 -0.07535036 -0.52647835 0.21684368 -0.25500393 -0.2321463 -0.7698043 -0.732707 -0.31715795 -0.10599488 0.030054599 -0.6702036 -1.0444834 0.6174361 0.30713567 0.06824107 0.35128334 0.0440548 0.49400234 -0.062361214 -0.23326495 -0.30521616 -0.31843483 -0.3475875 0.26280093 -0.32375965 0.5746567 0.1652805 0.2958466
74 0.017043801 0.009197714 -0.06100086 0.5494046 -0.18604037 0.3563411 -0.3984856 0.28523457 0.715812 0.17495318 0.33099705 -0.048324246 -0.2594919 0.23025627 -0.050262503 -0.16075918 -0.2870936 -0.07279911 0.022778012 0.3598713 -0.07161994 -0.4686862 -0.43614915 -0.49522105 0.35332856 0.4733177 -0.12105663 0.6833509 0.5031117 -0.22344433 0.4323002 0.24038398 -0.14858544 0.05777783 -0.5639519 -0.55254644 -0.6443279 -0.41182208 0.50127655 -0.8951583 0.015452522 -0.8430629 -0.78151155 -0.37533775 -0.6565733 -0.57025397 -0.08708038 -0.37994578 0.21676661 0.8521549 0.397921 0.10520345 -0.12796596 0.32350576 0.5413902 0.22484426 -0.23491131 -1.0073618 -0.2407838 0.593536 -0.94472456 -0.010795269 0.3206606 -0.010220863
73 0.08146714 -0.043075822 -0.070422165 0.5757192 -0.10995025 0.40628615 -0.34220114 0.22089535 0.703603 0.10082456 0.2748151 0.015212147 -0.18520707 0.18038796 -0.08994798 -0.18194884 -0.37517855 -0.04529853 0.036428563 0.37741524 -0.12060871 -0.5097262 -0.47080576 -0.3964002 0.4015627 0.513758 -0.07362331 0.6498769 0.569261 -0.24522065 0.425415 0.2081715 -0.17243922 0.17203754 -0.594534 -0.4621686 -0.62686247 -0.38530147 0.5438457 -0.8907462 -0.017417971 -0.81800294 -0.7490193 -0.32063082 -0.63510567 -0.6504903 -0.19689009 -0.44443807 0.14170557 0.78418905 0.41570878 0.10286091 -0.09228136 0.36882225 0.59738755 0.19442676 -0.33755785 -0.99053156 -0.29098246 0.60253054 -0.9575694 -0.010442114 0.27779683 -0.09901631
45 0.44749415 -0.76471114 -0.43329573 -0.28673512 -0.7301619 -0.054503627 -0.08082275 0.48890418 0.008954068 0.19307493 0.27476946 -0.020377027 0.17337702 0.40996468 -0.6173868 0.415246 0.5534643 -0.36139753 -0.018492881 -0.39573067 0.20202214 -0.41145587 0.1508655 -0.09246638 -0.55920523 0.17548782 0.17284627 0.23990083 0.3771558 -0.2555311 0.620409 -0.339211 0.40178406 0.24616918 0.05875394 0.54556656 -0.6125511 -0.38163358 -0.020885319 -0.5313221 -0.45383796 -0.3019052 -0.33304426 -0.44903255 -0.71725297 -0.47702944 -0.4285644 -0.535879 0.27436516 0.6995967 1.0164064 0.4821787 -0.027558455 1.033388 0.6132651 1.0129483 -0.15353332 0.26083678 -0.39731124 0.00988056 -0.4803935 -0.013341368 0.33202282 0.23154442
44 0.47310552 -0.7683427 -0.4813572 -0.29274815 -0.7749374 -0.110629275 -0.0610125 0.5040307 0.033060092 0.32473144 0.16924874 -0.023028463 0.115731984 0.348167 -0.7162662 0.35363796 0.52508676 -0.3506496 0.010031368 -0.34022784 0.23321868 -0.47259268 0.14645432 -0.010423434 -0.54381037 0.15312135 0.12000641 0.18023135 0.32231906 -0.23698694 0.68910354 -0.32234868 0.44019976 0.22717811 -0.0018576146 0.49803624 -0.66375226 -0.47656676 -0.059062943 -0.5925331 -0.3209217 -0.20811962 -0.33038443 -0.4731158 -0.7239944 -0.47109345 -0.45869315 -0.48959684 0.30040622 0.65559113 0.97208655 0.49194404 0.054666564 0.9783401 0.5500246 1.0192856 -0.14054063 0.26798972 -0.4596904 0.021451995 -0.47883442 -0.03659221 0.34407786 0.19588451
61 -0.6566358 -0.6025785 -0.17866386 -0.36522335 -0.77908605 0.98445773 -0.47451967 0.0072386903 0.5657799 0.5394341 0.60286254 -0.34800667 0.11581491 0.021016866 0.132011 0.41838512 -0.8065894 0.40246725 -0.14967608 0.34769464 0.3778985 -0.78271806 -0.15511937 0.31430906 -0.9829418 0.1314008 -0.397883 0.33337694 0.7440709 -0.303521 0.52931476 0.37036696 0.060089424 0.3163805 0.29534727 -0.22821723 -0.09515667 -0.13672662 0.4455725 -0.11650342 0.121445164 -0.599281 0.020210184 -0.36573255 -0.4889178 -0.08145913 0.13945997 -0.7688558 0.27209076 -0.25400698 0.23329115 0.7450051 -0.3335461 0.6347999 0.24107619 0.29904732 -0.4254519 -0.21267606 -0.44670337 -0.33126506 -0.32164145 -0.07406595 0.98722094 -0.13140462
60 -0.5798896 -0.6133895 -0.23655884 -0.37597486 -0.7260782 0.96782655 -0.54967177 0.0012231602 0.54082626 0.59585863 0.50099427 -0.2661147 0.046408318 0.10899312 0.028966533 0.46030062 -0.79069424 0.40564203 -0.06303806 0.35856205 0.28950268 -0.7816885 -0.20931436 0.30700538 -0.8996287 0.18709733 -0.38053837 0.34955126 0.6797767 -0.29425257 0.55792034 0.36590165 0.04276519 0.25440267 0.34351432 -0.20339681 -0.055811368 -0.16905183 0.4857161 -0.09522396 0.1396159 -0.63539946 -0.009091076 -0.35977808 -0.5381608 0.06388859 0.19848925 -0.78287065 0.23918183 -0.39687857 0.3312118 0.65122 -0.3734263 0.68686575 0.15361206 0.36519694 -0.46069747 -0.30709937 -0.4327942 -0.3796629 -0.32046938 -0.08839421 1.0614051 -0.12474391
213 0.19649354 -0.58662224 0.25201973 -0.3931387 -0.23239811 -0.19513148 -0.25538746 0.6048543 0.5270619 0.34916228 -0.46398962 0.107817926 -0.6618053 0.1033049 0.52631116 -0.049548335 0.31582323 -0.52332544 -0.3416512 0.2503646 -0.25167432 -0.4002253 -0.08475489 0.2876644 -0.57065463 -0.26193368 -0.22467867 0.7264442 0.6216015 0.09210732 0.7322399 0.21295176 -0.05753894 1.1046056 0.4668134 0.010679307 0.2900329 -0.25059295 0.21767344 -0.5992202 -0.58951 -0.35203 -0.19878677 -0.581002 -0.72709 0.034244977 -0.060060304 -0.27451542 0.66245395 0.07053483 -0.36654827 0.09430587 0.17771904 0.531954 0.8149298 0.42860177 -0.41268918 -0.73672557 0.16509134 0.23330003 -0.1866448 -0.25275603 0.27026474 -0.07556636
23 -0.61405295 -0.33209217 -0.31915966 0.041868873 -0.25283113 0.012919031 0.03707314 0.34567493 0.51605266 0.11929623 0.30864626 -0.120160535 -0.34111646 0.14424936 -0.264936 -0.29463512 -0.07292827 0.0295821 -0.82080805 0.0943492 0.5104045 -0.7628002 0.22014387 0.3093197 0.43649307 0.26325858 0.14823055 0.7813753 0.25327888 -0.025583101 0.58314544 0.40648103 0.36878183 0.82513434 0.55223894 0.08145855 -0.21511422 -0.21332543 -0.12352967 -0.51852405 0.23991467 -0.72754186 -0.3302417 -0.31534612 -0.30731624 0.21362734 -0.7003817 -1.073695 0.037096187 0.33478022 0.81185776 -0.19429839 0.29615137 0.55508786 0.28314608 0.076458186 0.42320475 -0.22505382 0.5006363 -0.009438955 0.20149957 0.13025619 0.5467411 -0.8611155
92 0.57710284 -0.45890298 -0.35226297 0.17234187 -0.35991204 0.43292907 -0.1521071 1.003734 0.32529104 0.08497134 -0.14199622 -0.05668234 0.17125076 -0.3473535 -0.1349565 0.29641733 -0.31662387 0.02155334 -1.4674809 0.0912016 -0.59881204 -0.11706023 0.17275795 -0.49712247 0.25007987 -0.009066029 -0.019595819 0.18726736 0.7147447 -0.18438093 0.18576553 0.3507102 0.3960722 0.04984817 0.6576157 -0.62490785 -0.43174797 -0.25388673 0.30462098 -0.94436747 -0.22771272 0.041125186 -0.56637895 0.012754694 -0.2978836 -0.1400754 -0.4463097 -0.86417216 0.53811324 -0.09855825 0.38492393 0.56131613 -0.06897674 0.13956708 0.49601895 0.3268935 -0.26888177 -0.13803157 0.23647363 -0.25691783 -0.014710973 -0.380989 0.8281649 0.33346573
2 0.13415663 -0.40817612 0.20885234 -0.15955406 -0.57598466 -0.04035268 -1.0629861 0.3796265 0.54061997 0.13659026 0.11501402 -0.12159887 -0.14480753 -0.43678755 -0.0802812 -0.3134006 0.83155006 0.3825985 -0.4057278 0.19412716 0.009449155 -0.31405404 -0.52068526 -0.18509194 -0.15384223 0.17420422 0.25222847 0.685523 0.689798 -0.35248545 0.6035486 0.29462045 -0.067603305 0.1688499 0.3600298 -0.09034354 -0.22845398 0.32446235 -0.09327643 0.103405885 0.16924047 0.17952663 -0.15094383 -0.36643368 -0.07595394 -0.4123256 -0.8870981 -0.652416 0.8558763 -0.027657302 0.94000596 0.48300704 -0.29499254 0.36930278 0.18085226 0.16326098 -0.3169678 -0.8940244 -0.42324826 0.39064884 0.12618506 0.7912098 0.50137794 0.013275897
236 0.3657846 -0.30511385 -0.4034194 0.011576855 -1.254801 -0.16532949 -0.1782863 0.08152473 0.26982704 -0.2023294 -0.15092579 -0.05431876 0.05802035 -0.024055049 -0.17855613 0.48786575 -0.56844705 0.017076107 -0.9274989 -0.06102143 -0.24512282 -0.53678006 -0.063809805 0.42254055 -0.43831056 0.2577204 0.08378029 0.38460332 0.75774556 0.016101845 1.0433477 -0.0835145 -0.55814767 -0.16558233 -0.014451448 0.48043638 0.30932248 -0.21881615 0.33666405 -0.4858682 -0.008224686 -0.71854675 -0.5218796 -0.5175508 -0.7780874 -0.36916363 0.046859447 -0.31255487 0.8136839 0.18543325 0.8012482 0.12322901 -0.3045413 -0.3930783 0.36824685 -0.1670123 0.49715427 -0.4229004 0.19904375 0.38946968 0.11794324 0.18022406 0.27016497 -0.19629444
131 -0.1881743 -0.0036310079 0.31023857 -0.17471434 -0.59357864 -0.10298451 -0.22604853 0.22312494 0.52176 0.7721824 0.51931506 -0.2614184 0.122566395 0.37320465 0.100443706 -0.22285372 -0.042759035 0.2688539 -0.3642605 -0.4303013 -0.38177958 0.014596847 0.11347477 0.25406313 0.21576244 -0.6401205 -0.9152502 0.6260923 0.8469775 -0.67143583 0.6813339 -1.0668187 0.00056783354 -0.12223617 -0.17303272 0.23878857 -0.30700865 -0.07065657 -0.26161814 -0.6713522 -0.030123902 -0.33235404 -0.4151136 0.10848123 -0.86453843 -0.2504079 -0.24234739 -1.3038807 0.5041806 -0.27545473 0.6123146 0.35686284 0.19155777 0.29619327 0.4733691 0.3350657 -0.58578825 -0.6934774 0.58923113 -0.034701075 -0.20983955 0.03923033 0.41384768 -0.3784531
130 -0.2485552 0.10538471 0.26591974 -0.15783979 -0.5806847 -0.059682865 -0.33569217 0.3239945 0.50145555 0.847435 0.52063996 -0.28106594 0.15270738 0.4052291 0.06339281 -0.1755901 0.0017805761 0.27531564 -0.4202386 -0.46578136 -0.3536037 -0.013999814 0.07538983 0.28673053 0.18199651 -0.6330263 -0.9677712 0.63834673 0.8816185 -0.7811656 0.6317654 -1.0298133 0.0064364206 -0.13048205 -0.14220917 0.25753143 -0.30420375 -0.1727733 -0.16026616 -0.68310404 -0.13512872 -0.31252864 -0.34701148 0.15358609 -0.8081802 -0.27069232 -0.24697891 -1.2571223 0.5236689 -0.2916039 0.57823735 0.21011268 0.1067903 0.3298857 0.51059717 0.34040013 -0.5139317 -0.6383513 0.5749752 0.10247253 -0.17589839 0.036913075 0.41048056 -0.373836
75 -0.027775986 -0.07853887 -0.11071884 0.68812466 -0.17144038 0.40388077 -0.35744873 0.23334813 0.75919294 0.074981764 0.2869832 0.0013201544 -0.2551277 0.10828096 -0.10352143 -0.25361606 -0.32584512 -0.08957244 -0.011455309 0.41487214 -0.051015183 -0.5136022 -0.54838645 -0.41461828 0.37155777 0.4985882 -0.060788177 0.6069482 0.5327313 -0.2528158 0.48537356 0.1032144 -0.1090019 0.03038136 -0.5360574 -0.47967505 -0.59212226 -0.41301763 0.42898244 -0.89440453 -0.070890054 -0.7727825 -0.8326783 -0.3600189 -0.6529801 -0.5962758 -0.123424865 -0.40181458 0.22512798 0.7175119 0.34348097 0.106774494 -0.1137265 0.43840545 0.58951604 0.1347322 -0.31824303 -0.9095809 -0.26717615 0.6194858 -1.0060592 -0.046378594 0.30552626 -0.080208324
46 0.45612705 -0.73801786 -0.44165188 -0.21837156 -0.7697548 -0.17037746 -0.092126176 0.5061512 0.011147777 0.2848979 0.2727112 -0.048030775 0.11055135 0.31246024 -0.76540035 0.3685426 0.53601587 -0.50698197 -0.03311954 -0.3776905 0.2809177 -0.419432 0.13798818 0.07020758 -0.54965115 0.18874818 0.12596615 0.2375058 0.3333894 -0.35162747 0.62747175 -0.29926068 0.5443619 0.25767535 -0.035759058 0.49064913 -0.62015 -0.3922629 -0.024101136 -0.56360334 -0.38330078 -0.2745634 -0.34665173 -0.47076738 -0.6997121 -0.45216122 -0.3609258 -0.53482074 0.30190647 0.67610514 0.9577138 0.5802406 -0.062759094 0.9935819 0.56943023 0.909505 -0.18700144 0.2357285 -0.4169918 0.0063201874 -0.42678463 -0.04021276 0.33857918 0.26807085
62 -0.5749449 -0.6897883 -0.24612245 -0.34913713 -0.7326171 0.9487765 -0.6026987 -0.004854398 0.57948387 0.6261947 0.5548227 -0.17976184 -0.0049543553 0.05541918 0.10685056 0.44874224 -0.771363 0.4294112 -0.08005977 0.35014242 0.27432436 -0.79465634 -0.13717651 0.27023944 -0.92763394 0.14085892 -0.44772714 0.27787098 0.61640185 -0.36523676 0.5166649 0.44158018 0.0055511156 0.3355054 0.31326455 -0.20031808 -0.12513927 -0.21200833 0.45343083 -0.055013914 0.16618772 -0.65296865 -0.014968866 -0.3263206 -0.5360404 0.0537592 0.16644686 -0.7995319 0.2629397 -0.3446593 0.34284726 0.681476 -0.506696 0.5720053 0.27459925 0.37236646 -0.4364369 -0.2100337 -0.41746727 -0.31171653 -0.317308 -0.12980834 0.9464553 -0.16044357
112 -0.34470633 -1.0775805 0.542849 1.2678683 -0.9276429 0.17646034 -0.59896386 0.38255978 0.7479481 0.0663984 -0.3677342 -0.21338747 -0.2774617 -0.057704624 0.22991233 0.45045665 -0.0391323 -0.12916343 -0.09933341 -0.200484 -0.680152 -0.659222 0.8722091 0.15359583 0.037627555 0.543379 -0.033980794 1.2802001 0.64319295 -0.17139514 0.5543355 -0.04497786 0.4213054 0.1670106 -0.36044466 -0.11806964 -0.3645631 -0.4110203 0.08241284 -0.6116865 -0.25574413 -0.2164708 0.38842204 -0.10565948 -0.7133515 -0.40011066 -0.3040812 -0.49296194 0.122372255 -0.38602114 0.29319784 0.48072356 -0.3611687 0.5650634 0.34565684 0.6082418 0.46005705 -0.28219876 0.28419912 0.009467894 0.038420334 0.6995239 0.7557653 0.12198493
144 0.14401188 -0.43004113 -0.20675664 -0.2016066 -0.9897081 0.089473076 -0.27583128 0.006972246 0.18123841 0.22652969 0.44150433 0.39855674 -0.25809515 -0.2687941 -0.07035084 0.65230584 0.17499062 -0.2138237 -0.52992016 -0.55364484 -0.5948024 -0.43209615 0.41787797 0.08775696 -0.045289636 0.6983215 -0.32380822 0.3937092 0.7282205 -0.097594425 0.09689723 -0.44106475 -0.040866636 0.7271785 0.40291724 -0.5501055 -0.47902724 -0.0279825 -0.11573882 -0.22831693 0.13063914 -0.46382916 -0.33866847 0.2348527 -0.030717889 0.27402565 0.13507037 -0.46950066 0.511415 0.1295106 0.16998489 0.2501698 0.5370164 0.4900315 0.012119048 0.0769525 -0.082813986 -0.49870896 -0.28495073 0.9862304 -0.64575815 0.31161794 0.8415723 -0.41598615
124 0.30612543 -0.9181302 0.57116354 0.070601545 -0.7132301 0.06873423 -0.1504562 0.66039187 0.2389418 0.31919587 0.9168594 -0.6278791 -0.3989231 -0.1848291 -0.6046559 -0.1426796 0.30436483 0.92301404 -0.34367093 0.5050564 -0.52316356 -0.47869572 0.11059698 0.53351367 -0.20937866 0.089429885 0.012565149 0.3885856 -0.03082023 -0.061397076 0.5364798 0.031863343 -0.17569456 0.3049814 0.27249563 -0.65427023 0.11582029 0.14406486 0.93556386 -0.88770646 -0.33324113 -0.23152395 -0.24571393 -0.68972 -0.7673794 -0.26686007 0.36295494 -0.62654686 0.21224819 -0.18963195 1.0460514 0.40663537 0.39682925 0.61241 0.4612517 0.32847866 -0.15519953 0.25761276 0.69101095 0.946081 -0.48877105 0.2948566 0.3172487 -0.2409993
179 0.12833099 -1.2435675 -0.51637095 -0.08491815 -0.28811443 -0.09564641 0.028840909 1.1125792 0.12234455 -0.06486051 0.28705278 -0.5809948 -0.62530214 0.13596909 0.024243431 0.03546034 -0.018493636 0.15172414 -0.3688751 0.4298022 -0.09642231 -0.37876102 -0.114243805 -0.6094202 -0.32644007 0.050545827 0.023998596 0.36378953 1.118792 -0.8563214 0.35170382 -0.25435394 0.12126245 0.46681082 -0.39058524 -0.031420432 -0.054794792 -0.47755656 0.25306228 0.027474975 0.25807345 -0.7114391 -0.31636328 0.38550034 -0.6997642 -0.016915279 0.09224277 -0.4865332 0.17258254 -0.20602937 0.35465288 0.20271283 0.4435298 0.23324151 -0.07585143 0.15397333 0.028874652 -0.39223808 -0.039070264 0.13716994 0.09743116 0.6080209 0.05418269 -0.036455803
111 -0.43433753 -1.1456422 0.4485631 1.2050442 -0.8566348 0.33432117 -0.58768934 0.3093009 0.732837 0.032397587 -0.39074507 -0.25250137 -0.21498333 -0.058986872 0.14977624 0.4165543 -0.02710922 -0.12275379 -0.107176214 -0.13787456 -0.8405039 -0.6147872 0.85917026 0.17346598 -0.053844426 0.5402033 0.005376493 1.3561907 0.7528556 -0.10758317 0.49594375 -0.1347901 0.39219794 0.15624033 -0.34868827 -0.077690996 -0.41388932 -0.43275133 0.1572104 -0.5986576 -0.24875714 -0.15433551 0.40329784 -0.15944232 -0.7239326 -0.39124766 -0.3914408 -0.4834635 0.09004393 -0.26288065 0.28903177 0.5104768 -0.30806577 0.56627744 0.2921856 0.64222133 0.43419373 -0.34632587 0.34211057 0.052092496 0.12965417 0.6268562 0.66459525 0.035005067
258 -0.18512432 -0.6167277 -0.1344673 0.48294035 0.3623921 0.11921212 -0.35870788 0.28490013 0.86931676 0.54671 0.20452335 -0.59197575 -0.19111195 -0.30211076 -0.17154258 0.043127067 -0.1817275 0.10357801 -0.7541912 -0.7034738 -0.44188613 0.19609064 -0.06752746 0.22796895 -0.34072152 0.51447546 -0.07983482 -0.27491283 0.3808032 -0.44164822 0.70317316 -0.46134195 -0.19027944 0.803467 0.20930912 -0.34443274 -0.10657807 0.15313369 0.3615012 -0.06080496 0.06410605 -0.0038886531 -0.17888391 -0.4314692 -0.8354578 -0.15170698 0.10376253 -0.59537816 0.41681403 0.40751478 0.6179857 -0.2229131 -0.0027766633 0.28867134 0.6327883 0.6037591 0.56131685 -0.5288961 -0.5082909 -0.24730512 -0.11458297 0.23966166 0.4410707 -0.0004260218
123 0.21829347 -0.84901714 0.54323757 0.080740154 -0.75409734 0.12837918 -0.16240977 0.64601886 0.24921066 0.23246104 0.87170976 -0.64256227 -0.48813173 -0.050623994 -0.58740485 -0.06184669 0.3767774 0.9085748 -0.31825662 0.34833333 -0.54582715 -0.46253872 0.013418093 0.4328364 -0.19479412 0.06531094 -0.029896025 0.34606692 -0.009778275 -0.08501514 0.46717703 0.069623955 -0.19020058 0.40038413 0.22452831 -0.77432215 0.20356041 0.07998471 0.8813996 -0.8855488 -0.3692636 -0.20002492 -0.16962172 -0.7181036 -0.7951072 -0.28781134 0.36014283 -0.61682355 0.21006714 -0.2436806 1.1765974 0.4868753 0.34664255 0.6219713 0.52461934 0.20203954 -0.1654363 0.33740157 0.68269014 1.0007418 -0.40367445 0.19643556 0.29701263 -0.27994618
292 -0.0442882 -1.1815871 -0.1348761 0.5905828 -0.20065857 -0.03230567 -0.008207412 0.4583376 0.264889 0.82680726 0.24080883 -0.13877904 -0.0030937758 0.48614952 0.116073765 0.49100566 -0.023217587 0.49405813 -0.60121226 -0.5954918 -0.43727663 -0.34631678 -0.40229064 0.55280304 -0.17673168 -0.19286944 -0.24653889 0.51210666 0.039745595 0.24656096 0.40738183 0.31169334 -0.15404133 0.11806043 -0.0404658 -0.020424979 -0.041945916 -0.4131852 0.14208224 -0.17252629 -0.3237954 -0.7867874 -0.7125391 -0.38536116 -0.066135 0.0990198 -0.76997375 -1.0219848 0.55793583 0.32915774 0.1116362 0.28901035 0.13558182 0.43326393 -0.009223051 -0.3366795 -0.42591497 -0.23095557 -0.3401679 0.29004598 -0.2558152 0.64004827 0.08195441 0.36664724
132 -0.147986 -0.02134054 0.23880546 -0.16144714 -0.6171519 -0.04347329 -0.29172474 0.26990163 0.60088897 0.8916971 0.4673377 -0.2663455 0.21016109 0.3677291 0.10376932 -0.28429717 0.00974014 0.15952532 -0.41531566 -0.46433157 -0.30512464 0.049308363 0.06652803 0.15697354 0.13754117 -0.57372576 -1.0185432 0.5567977 0.8303923 -0.6647522 0.6013289 -0.9849051 -0.03245287 -0.16323791 -0.18395685 0.26891914 -0.29513085 -0.17819232 -0.22772814 -0.74887615 -0.092078604 -0.327121 -0.27229542 0.10581763 -0.81738293 -0.2663265 -0.16830203 -1.3818673 0.46394563 -0.31877115 0.5917851 0.20044562 0.08509326 0.2966909 0.5016098 0.3193063 -0.5812518 -0.5835584 0.6018744 0.1325119 -0.16914068 0.13195999 0.40749532 -0.45580018
119 -0.34262657 -0.7993606 -0.15913215 -0.056114905 -0.5150552 0.22804569 -0.41254583 0.7026047 1.0049692 0.5896974 -0.2707277 -0.5716518 -0.1773766 0.79650074 -0.5276557 -0.31067944 -0.52838737 0.120179616 -0.63142323 0.08624814 -0.65661263 -0.08115117 -0.27282715 -0.0072598686 -0.0779117 -0.041419573 0.04714015 0.34218472 0.6371133 -0.23586354 1.0815862 0.75774556 0.70364934 0.37345916 -0.38717365 0.19062641 -0.5254002 0.5542883 0.00015940893 0.30434737 -0.7884835 -0.8591036 -0.21551403 -0.5882289 0.04172224 -0.88943815 -0.10429112 -0.50541794 0.76246935 -0.09929957 0.6702004 0.20468585 0.33030447 -0.12559025 0.20714311 0.9166635 -0.11388528 -0.040909506 0.520296 0.45641804 -0.33369207 -0.06758084 0.48001474 -0.06804954
118 -0.37070513 -0.8250001 -0.13070531 0.011914408 -0.54731846 0.15999481 -0.29708448 0.63518614 0.97858423 0.52303743 -0.33920407 -0.5720824 -0.26136371 0.69062775 -0.4864594 -0.2493039 -0.54535645 0.17253204 -0.63346493 0.12868674 -0.5927144 0.030875465 -0.24856146 -0.015616927 0.022959597 0.0079647275 0.07998623 0.35654104 0.50992125 -0.27417397 1.1491174 0.7026292 0.72076255 0.46189466 -0.37635767 0.15977342 -0.5164181 0.5929537 -0.10237511 0.38406664 -0.91440403 -0.919577 -0.3304137 -0.5523416 -0.021224853 -0.9262858 -0.07596043 -0.5117289 0.74095285 -0.22155903 0.76699203 0.30205262 0.21859396 -0.120072 0.27837947 0.8487061 -0.23152418 -0.051601574 0.4433219 0.33479664 -0.41253015 -0.06962398 0.45572382 -0.14526185
214 0.17762017 -0.5881361 0.3115077 -0.29473105 -0.23589918 -0.18614806 -0.26271588 0.5661622 0.3648765 0.24811731 -0.56538147 0.11535753 -0.5791439 0.017287346 0.5648078 0.048619077 0.29849124 -0.40508413 -0.38268682 0.29812214 -0.27595967 -0.40192187 -0.1669881 0.19807206 -0.47000927 -0.2980917 -0.35360414 0.67549753 0.6505417 0.121012636 0.8669759 0.2098101 -0.012915541 1.1892254 0.27276132 0.11108166 0.36877194 -0.15636462 0.234935 -0.5716807 -0.61367804 -0.24277009 -0.26834396 -0.5926442 -0.69344354 0.04591261 0.014774653 -0.33248046 0.5750653 0.099151544 -0.2979599 0.09615418 0.27533942 0.68270344 0.8561347 0.3793002 -0.43992308 -0.69072545 0.043688297 0.17334893 -0.16942154 -0.2285955 0.37424988 -0.1943073
24 -0.4878682 -0.37939888 -0.20654437 0.07363042 -0.24233235 0.12233758 -0.042380963 0.28514498 0.46072763 0.088981144 0.25970557 -0.30841297 -0.3345732 0.24907626 -0.2648947 -0.19950774 -0.03232362 0.075009026 -0.7591329 -0.008785229 0.6231361 -0.7138388 0.24522366 0.26178122 0.4805828 0.28656146 -0.04614067 0.7212298 0.25944987 -0.04114568 0.52712965 0.4861472 0.53672713 0.8500382 0.54638374 0.15494744 -0.22588111 -0.30131048 -0.17575713 -0.57602894 0.2280248 -0.688347 -0.38946003 -0.45233196 -0.25543505 0.3164048 -0.6223899 -0.94888777 0.08989797 0.31476447 0.8642628 -0.1913403 0.33661324 0.45556208 0.31841603 -0.008483054 0.45123753 -0.320759 0.48546326 0.032055903 0.2418698 0.18229815 0.63341117 -0.85867393
93 0.59599674 -0.5466692 -0.3516999 0.14718227 -0.34754565 0.55689985 -0.22357905 1.064218 0.3118161 0.115945786 -0.074917294 -0.014446266 0.10011439 -0.42444003 0.008903745 0.32307312 -0.36395475 0.061535664 -1.374574 0.14651918 -0.67749625 -0.15669666 0.27739036 -0.4031338 0.2418866 -0.09796536 0.04126164 0.15193164 0.612487 -0.2392631 0.28959134 0.38393924 0.3594422 0.07248151 0.6717189 -0.5668172 -0.4232969 -0.2890092 0.043569323 -1.0702424 -0.21002087 0.11165763 -0.49309424 0.094544634 -0.14582689 -0.21768336 -0.31406057 -0.87578726 0.48030278 0.117039226 0.5058786 0.5581619 -0.072377115 0.047312304 0.51689154 0.33670935 -0.29514447 -0.20991766 0.24495678 -0.23825014 -0.0207819 -0.3542836 0.72611785 0.30546203
3 0.112388656 -0.45094326 0.20836444 -0.24280737 -0.5452851 -0.022998316 -0.9411704 0.31447223 0.682634 0.07101467 0.25936317 0.0004997489 -0.1841663 -0.47232476 -0.036406774 -0.25362507 0.83059865 0.38509226 -0.45808578 0.20245881 -0.041445274 -0.2946907 -0.565034 -0.20672415 -0.108649455 0.0860537 0.29242653 0.70721734 0.6722992 -0.25166607 0.6486935 0.15952334 0.005473985 0.26589713 0.19979784 -0.055983264 -0.37324032 0.25596347 0.062354483 0.15672623 0.29384372 0.19345528 -0.10420009 -0.50109917 0.0005309344 -0.31339842 -0.8986709 -0.5520427 0.8617191 -0.058758974 0.99458677 0.47790068 -0.32970166 0.34028244 0.22840625 0.1361579 -0.3951594 -0.86770546 -0.30849984 0.38432637 0.20971225 0.7635683 0.50846416 0.15351179
237 0.37083024 -0.27168044 -0.41230404 0.07998632 -1.347423 -0.19170347 -0.1137308 -2.9525374e-05 0.21087936 -0.17156513 -0.074640974 -0.034854997 0.023548529 -0.012998469 -0.14341047 0.34102702 -0.57489055 0.09087868 -0.8341363 -0.05539404 -0.21331562 -0.4882306 -0.028895212 0.4248716 -0.42948982 0.25585842 0.022910355 0.33091295 0.8025195 0.030274002 1.2021502 -0.12152142 -0.47978112 -0.072561935 -0.012613652 0.38064447 0.24022485 -0.24106492 0.41159415 -0.40618348 -0.13250287 -0.6580375 -0.5993174 -0.48015824 -0.78481174 -0.27974105 -0.03148441 -0.32640553 0.6580093 0.2767884 0.73540705 0.12278801 -0.32224104 -0.53928113 0.41047367 -0.08338647 0.4243047 -0.40603742 0.13029818 0.5319169 0.38610274 0.16998012 0.4013465 -0.09475307
125 0.30975875 -0.7316733 0.55060786 0.06256971 -0.76147 0.061792564 -0.107708305 0.6615381 0.31971928 0.19798154 0.96736926 -0.7591736 -0.48853174 -0.008551778 -0.6262446 0.020215446 0.29857203 0.98443377 -0.37161037 0.41663298 -0.6071772 -0.47552776 0.065657504 0.42126787 -0.20011675 -0.004646767 -0.02659868 0.34261367 -0.087665446 -0.07147678 0.4698668 0.12289393 -0.24364369 0.36431247 0.26767877 -0.7375015 0.11323033 0.15017083 0.81609523 -0.9146964 -0.3724571 -0.27599007 -0.14167796 -0.6794147 -0.871402 -0.16955133 0.23830436 -0.5412761 0.28695 -0.23828207 1.0380228 0.47133052 0.30360055 0.64872324 0.49615094 0.40788925 -0.096170805 0.21334085 0.56341636 0.95850515 -0.42741665 0.32321194 0.27598658 -0.32800907
113 -0.24737366 -1.1126549 0.5140441 1.2107967 -0.8632636 0.2753999 -0.5828864 0.41943756 0.71750855 0.048926245 -0.48485136 -0.25495726 -0.26251248 0.07302999 0.17270485 0.37410513 -0.082906224 -0.08383304 -0.067711264 -0.21837059 -0.7468173 -0.76440686 0.84143806 0.09322916 0.015181749 0.5740934 -0.061690826 1.2966791 0.6933961 -0.04466978 0.6079785 -0.16359103 0.38981926 0.15227765 -0.35471013 -0.11193605 -0.39951882 -0.41854817 0.24565388 -0.5213102 -0.22768496 -0.12329122 0.5066792 -0.09255002 -0.6422431 -0.28808406 -0.3697896 -0.6345025 0.16631036 -0.33245084 0.31342426 0.5764554 -0.36492702 0.57353526 0.2660369 0.6818576 0.5543218 -0.37448108 0.26282796 0.09751409 0.035363145 0.5451584 0.6457409 -0.025575023
76 -0.10986055 -0.16624628 -0.14923425 0.6404257 -0.31922302 0.39040506 -0.39757484 0.29817033 0.7369123 0.03851366 0.4435386 -0.08806299 -0.18323278 0.119487904 -0.11376828 -0.28513277 -0.31634665 -0.13895138 0.06416038 0.26084545 -0.14400086 -0.5862384 -0.64519393 -0.5368227 0.47163332 0.4559382 -0.14514011 0.6179505 0.5182854 -0.11746042 0.51911926 0.19618824 -0.17383419 -0.01764739 -0.53171057 -0.5179258 -0.45532286 -0.3636621 0.44273263 -0.8803449 -0.08858022 -0.78588897 -0.6188782 -0.23910828 -0.6473861 -0.47929943 -0.14884771 -0.2553353 0.2831113 0.8585327 0.42016524 0.038330674 -0.023810942 0.43549404 0.64876735 0.15887411 -0.352964 -0.9952142 -0.18606184 0.4315607 -0.99333566 -0.10497972 0.32422522 0.015111928
47 0.46594653 -0.6882187 -0.5077471 -0.2452461 -0.8019888 -0.11133293 0.013653876 0.51235163 0.09716958 0.16968758 0.3006354 -0.04238145 -0.045339637 0.49679995 -0.8362307 0.41697362 0.5428259 -0.44880742 0.06749714 -0.42760685 0.16649753 -0.39293385 0.012247766 -0.019362437 -0.5559491 0.25985107 0.16634718 0.1663513 0.39737922 -0.2641445 0.6396417 -0.36376408 0.5356471 0.33655062 -0.034374673 0.4356221 -0.4822669 -0.24894106 -0.07634959 -0.6138552 -0.3583355 -0.22710901 -0.39073634 -0.4291686 -0.64532214 -0.35407728 -0.44018537 -0.7020942 0.2490714 0.66081464 0.8601441 0.56962967 -0.3367806 0.9788808 0.664666 0.970083 -0.20502576 0.27818793 -0.35624292 0.01955828 -0.39978734 0.0077617853 0.32071835 0.23585519
120 -0.49114951 -0.8510026 -0.04980361 -0.06398251 -0.49595186 0.11975798 -0.31316233 0.70030755 0.9484921 0.47142863 -0.3644316 -0.57545906 -0.27532917 0.79117495 -0.5551401 -0.297962 -0.6066795 0.10541068 -0.6753037 0.12944832 -0.5769989 0.04242742 -0.2765571 0.025147203 -0.10210234 -0.036467265 -0.023805045 0.31773865 0.55764836 -0.31870767 1.1907238 0.84489 0.7226116 0.32089534 -0.3401314 0.1538503 -0.39696434 0.5401419 -0.049941953 0.24493334 -0.7443486 -0.86316854 -0.19156285 -0.4807121 -0.06393836 -1.0091758 -0.20989792 -0.55742395 0.71803874 -0.1732864 0.81604826 0.18235466 0.19318698 -0.02542832 0.33983755 0.80926794 -0.15769339 -0.063298956 0.5017063 0.41609478 -0.4725881 -0.024822138 0.49087083 0.09758139
63 -0.6408616 -0.75873226 -0.2766733 -0.29461193 -0.7428367 0.9706301 -0.55050033 0.06909705 0.48978642 0.5985318 0.67769444 -0.117336296 0.20228092 -0.0022798413 0.08831835 0.39165768 -0.8271515 0.43593332 0.0432316 0.28822845 0.3643425 -0.80474395 -0.07381993 0.33175272 -0.8965133 0.034856264 -0.41201404 0.2211155 0.74232113 -0.2128311 0.5582643 0.5344602 -0.08631669 0.5985462 0.1782373 -0.24694252 -0.15228689 -0.18687417 0.33075774 -0.16208813 0.21657652 -0.45234206 -0.13263701 -0.28569824 -0.5664009 -0.098899156 0.17457949 -0.78515327 0.3578188 -0.400153 0.32051355 0.7169266 -0.45774427 0.50530946 0.2098215 0.4312753 -0.38680872 -0.26151788 -0.38681957 -0.2812817 -0.29233608 -0.10831215 0.90200734 -0.17415096
180 0.17938109 -1.1640909 -0.43336654 -0.21522917 -0.29858685 -0.19687833 -0.16952586 1.1291581 0.24626565 -0.020106265 0.40220797 -0.6307817 -0.59069633 0.024365636 0.026147572 0.16098878 -0.23469195 0.13408025 -0.37858486 0.40396294 -0.014083627 -0.44684747 -0.11258013 -0.57551444 -0.4144335 0.027836137 0.04239662 0.2621556 0.84888506 -0.9086544 0.42075932 -0.26917106 0.3092344 0.4521892 -0.36488608 -0.06265881 0.0050163353 -0.47882676 0.13075547 0.027216049 0.11110347 -0.64879555 -0.4040975 0.47880533 -0.7076034 -0.17561974 0.011215061 -0.54455674 -0.024619844 -0.15714455 0.25900745 0.17167795 0.5733318 0.22422665 -0.041838072 0.042383406 0.023796069 -0.50608015 -0.07511836 0.30140254 0.2162011 0.5303396 0.030868217 0.016582107
145 0.080839925 -0.3955639 -0.3571981 -0.1296837 -0.97748846 0.056511264 -0.32704595 -0.14420757 0.3103852 0.25705275 0.43501085 0.29311657 -0.29757598 -0.43780002 -0.03815522 0.7807971 0.24159536 -0.073815905 -0.4029736 -0.5110008 -0.5952312 -0.5070255 0.43295297 0.00975569 -0.20541702 0.6544255 -0.3622857 0.34311828 0.72573316 -0.07307761 0.08955581 -0.4431603 0.13692859 0.6105507 0.36469138 -0.42166027 -0.29318964 -0.08614449 -0.0041725226 -0.26116577 0.10013283 -0.32741678 -0.36419937 0.3074859 0.06808534 0.33362263 0.02567464 -0.5227084 0.43893775 0.2822386 0.17694113 0.16538966 0.70678484 0.44129637 0.11475554 0.07415119 -0.11951783 -0.5914753 -0.11834603 0.96324617 -0.6564632 0.22242175 0.83820266 -0.3737941
259 0.008155647 -0.6789542 -0.06032414 0.5599756 0.39996412 0.20259112 -0.39863262 0.14424656 0.8321384 0.49540746 0.20438495 -0.7181502 -0.19911441 -0.225965 0.021438718 0.058324076 -0.14870983 0.19576341 -0.67334473 -0.8095982 -0.32561293 0.12082327 -0.050407656 0.22629729 -0.45678714 0.49510184 -0.0072145164 -0.34856638 0.40248206 -0.4480715 0.73982143 -0.46591318 -0.058693238 0.7953831 0.18960465 -0.36679947 -0.15546513 0.18440159 0.27500445 -0.16032957 0.25633112 -0.017203206 -0.20581527 -0.41095275 -0.7278438 -0.24303676 0.16093454 -0.50919557 0.54708517 0.3378664 0.6626411 -0.3436971 0.071027614 0.41907617 0.6027425 0.47240317 0.47677138 -0.4857723 -0.2887618 -0.13422439 -0.09144348 0.076029174 0.48038563 0.052028187
133 -0.2138836 -0.02229097 0.31438223 -0.16919297 -0.59082514 -0.22017144 -0.16745748 0.31724134 0.65457356 0.8277127 0.5261315 -0.2366013 0.29678863 0.44578376 0.22947389 -0.30942026 0.025649283 0.13127276 -0.30969623 -0.46848008 -0.49080625 0.0673426 -0.0042951945 0.15945911 0.10615024 -0.42781118 -1.0573559 0.4000338 0.84648246 -0.6079662 0.6791263 -0.9858064 0.09778965 -0.19823413 0.010505066 0.22533754 -0.32392442 -0.45673382 -0.17545749 -0.7337595 -0.088975765 -0.38622525 -0.28378776 -0.010251485 -0.80852264 -0.19010416 -0.20963767 -1.2353649 0.40482768 -0.37012863 0.73110694 0.35384145 0.14214958 0.14360888 0.41104463 0.35951927 -0.5985871 -0.67320275 0.61305285 0.043093845 -0.24524075 0.15611428 0.446591 -0.54598945
293 -0.09147095 -1.1452038 -0.12742265 0.5993764 -0.35530403 0.0622016 0.13566057 0.40892696 0.076369695 0.7409542 0.29706517 -0.1601564 -0.050339904 0.34879708 0.30391 0.43074444 0.022068543 0.51269853 -0.6786253 -0.5811997 -0.37871963 -0.25714397 -0.3585971 0.49554986 -0.3526462 -0.24817923 -0.23396987 0.4983038 -0.06522183 0.1797544 0.44774675 0.32597265 -0.19397438 0.1592661 -0.19601394 -0.19650511 -0.08538921 -0.49231687 0.08533596 -0.13319542 -0.35404065 -0.64352316 -0.81071883 -0.46581116 -0.030030252 0.017412314 -0.77990776 -1.0634754 0.6169137 0.28733125 0.22141212 0.013879013 0.14085837 0.44287822 -0.14462364 -0.2070753 -0.43189338 -0.28044695 -0.294778 0.25732875 -0.34949246 0.52990377 0.009492877 0.297493
215 0.31778827 -0.4361353 0.26208723 -0.40487608 -0.21998239 -0.15787748 -0.32748926 0.75133896 0.46400896 0.3333501 -0.44137797 0.14470656 -0.5377659 0.062275194 0.6289599 0.1610125 0.31526703 -0.4286027 -0.18018164 0.10846764 -0.21104883 -0.37736395 -0.105187625 0.25722435 -0.5183082 -0.27185214 -0.2509206 0.54322374 0.6353471 0.14779888 0.96805173 0.2922192 0.034162253 1.05627 0.28566548 -0.13119413 0.3388503 -0.3139286 0.30706468 -0.4913131 -0.610538 -0.2756428 -0.20432316 -0.66066104 -0.6414758 0.006290901 -0.039599914 -0.2576506 0.55953646 0.20455812 -0.4495115 0.09961803 0.24531339 0.62989134 0.86185646 0.44520554 -0.40348724 -0.7383141 0.38029698 0.11073218 -0.12000053 0.021917278 0.4011482 -0.27699584
25 -0.49131662 -0.48031473 -0.18243971 0.14912625 -0.33502445 0.096890815 -0.09767124 0.47798392 0.37677553 0.1013527 0.2743796 -0.26677582 -0.4325992 0.20459042 -0.39307803 -0.27432877 -0.05705144 -0.003058381 -0.81433165 0.014683586 0.6150155 -0.7002338 0.2498367 0.52406573 0.47115308 0.3595229 -0.0071976776 0.6527384 0.3124595 -0.05015521 0.6274013 0.30416116 0.6162065 0.724778 0.5923551 -0.032388065 -0.13499823 -0.22963074 -0.18206038 -0.52029425 0.34208477 -0.7281691 -0.38196394 -0.4857574 -0.079177424 0.18689422 -0.6824144 -0.90421766 -0.084645525 0.2674782 0.68500674 -0.3069846 0.11722574 0.44019893 0.29724059 -0.033285543 0.28260598 -0.43293855 0.5439521 -0.08112142 0.17771406 0.11012515 0.532914 -0.98160684
126 0.3990689 -0.8477757 0.7173435 -0.020074679 -0.7478329 0.0059314105 0.13654198 0.5432972 0.20004758 0.24256897 1.0357759 -0.83347124 -0.30367815 -0.12745386 -0.67678106 -0.018342387 0.1816796 0.90401244 -0.27261016 0.6432153 -0.648623 -0.19016676 0.14781244 0.43902975 -0.2906104 0.13058147 0.010834365 0.29458413 0.0022061253 -0.11281697 0.59777486 0.12623324 -0.20706482 0.34115732 0.2270137 -0.8920789 0.024309853 0.09065847 0.72337824 -0.8690589 -0.3568833 -0.405719 -0.08284482 -0.7574226 -0.78757256 -0.15363453 0.076575875 -0.6487814 0.32549503 -0.11443822 0.8899222 0.4247952 0.25153905 0.7315837 0.65296817 0.33972648 -0.06636889 0.14403735 0.61627823 0.9559529 -0.32090282 0.45012113 0.34698978 -0.36413863
94 0.71519023 -0.4877469 -0.40579298 0.23717068 -0.43245682 0.4123171 -0.05359807 1.0732213 0.3773929 0.05730839 -0.09727368 -0.050483722 0.038049508 -0.4890792 -0.03756981 0.31538236 -0.25027487 -0.10320259 -1.3262739 0.056119744 -0.76867354 -0.04186647 0.15437591 -0.3298049 0.50923824 -0.07565063 -0.04749532 0.21369973 0.70783854 -0.32798624 0.325428 0.32287 0.414287 0.1513827 0.65900415 -0.55945677 -0.36265543 -0.37080517 0.21663623 -1.0063226 -0.3532053 0.31105554 -0.6364604 -0.076892495 -0.10458247 -0.30929175 -0.4898066 -0.815846 0.45358214 0.13376752 0.546451 0.4942133 0.10430342 0.08663915 0.28753635 0.33913204 -0.14701141 -0.26056585 0.3997389 -0.26403925 -0.07857264 -0.27061838 0.6547878 0.36942056
4 0.06940292 -0.49729022 0.2042884 -0.24263902 -0.60475993 0.06360736 -0.893262 0.28508496 0.61641693 0.08436849 0.044722874 0.027324721 -0.26473927 -0.59865326 0.035774924 -0.24217112 0.78058857 0.40015736 -0.31378645 0.090392314 0.01956816 -0.26270995 -0.7028592 -0.13452573 0.0021555664 0.19724889 0.27638656 0.77421004 0.7543547 -0.28230438 0.725038 0.25092027 0.11736862 0.016386962 0.42571184 -0.20197798 -0.43788952 0.18835983 0.058329016 0.14425313 0.22494678 0.17703009 -0.17315137 -0.5051395 0.003982387 -0.3285844 -0.60906404 -0.619843 0.90824336 -0.061525233 1.0526543 0.3167885 -0.2861998 0.44194296 0.24897127 0.26085225 -0.44203508 -0.7472724 -0.43260583 0.43811008 0.40864882 0.8164168 0.28560928 0.09475719
238 0.20317516 -0.36029676 -0.4663411 0.020337151 -1.3158851 -0.07726217 -0.13948482 0.14034632 0.014331508 -0.1609545 -0.17817089 -0.032474916 -0.05453676 -0.124794066 -0.048378967 0.5219361 -0.6193839 -0.055206567 -0.7027721 -0.08850531 -0.17404379 -0.42679957 0.10470063 0.3076475 -0.3413363 0.32831103 0.09616638 0.13947864 0.6614673 -0.016698327 1.2012712 -0.21063419 -0.655504 -0.16641815 -0.017487565 0.43671748 0.24035764 -0.13228856 0.51380104 -0.4733302 -0.107063055 -0.7425245 -0.5364371 -0.7094339 -0.6193546 -0.36357164 -0.048847094 -0.46598977 0.7358252 0.22086897 0.7956753 0.07695599 -0.3533036 -0.41005245 0.3457858 -0.07699505 0.31350932 -0.58294624 0.33754864 0.520233 0.36537772 0.1614195 0.33318228 -0.10507238
114 -0.29871485 -1.0221132 0.75479716 1.0526837 -0.92413265 0.23850304 -0.4837618 0.5113579 0.8154419 -0.06986148 -0.3967105 -0.34083265 -0.16331916 -0.14523062 0.24999684 0.41434494 -0.14571755 0.0008462518 -0.12994407 -0.24547945 -0.6193329 -0.87605155 0.6989839 0.109130576 0.19897498 0.5268246 0.08127983 1.25204 0.6927105 -0.027372992 0.59229785 -0.35043985 0.5809177 0.30016306 -0.47639525 -0.050109148 -0.2631129 -0.41655472 0.22922419 -0.58564645 -0.33226934 -0.15565364 0.41907203 -0.07205492 -0.58646685 -0.37993947 -0.3028742 -0.7089929 0.2497616 -0.27582797 0.16257294 0.6377099 -0.4235068 0.55137956 0.18065324 0.7667547 0.689825 -0.2814487 0.18589023 0.14354067 -0.00847831 0.57096106 0.75606257 0.06419694
77 -0.10697523 -0.21770783 -0.19601184 0.79724586 -0.33907658 0.5175263 -0.4803133 0.48550516 0.7680166 -0.0751711 0.42639846 -0.16640839 -0.123140246 0.14502214 -0.049515385 -0.41572905 -0.39011693 -0.33890173 0.04422306 0.42448115 0.056210246 -0.56514204 -0.6116494 -0.3781409 0.34408712 0.40236646 -0.19216493 0.5667044 0.40173948 -0.041100513 0.54483676 -0.05612533 -0.081793755 -0.100187264 -0.45463628 -0.56736416 -0.6032104 -0.3049309 0.38053435 -0.76145387 -0.10246742 -0.66200083 -0.8343483 -0.2613458 -0.5993325 -0.2230722 -0.11268747 -0.24079713 0.44499502 0.7551879 0.36308062 0.057408217 -0.15764359 0.4210229 0.7111283 0.19989103 -0.29116386 -0.91971296 -0.10541037 0.58796185 -1.1072966 0.043192077 0.26132917 -0.054908607
48 0.5350665 -0.6746946 -0.58720356 -0.1549395 -0.6791238 -0.20277633 -0.038575474 0.6594705 -0.0695299 0.32946923 0.46258435 -0.147255 0.17008731 0.45946583 -0.75452834 0.53005534 0.6060254 -0.66985905 -0.0026290747 -0.26014838 0.20335552 -0.282796 -0.058400467 0.12952888 -0.51987636 0.36252415 0.053741775 0.20564628 0.46971825 -0.40938804 0.5598216 -0.31241384 0.64732885 0.2869967 0.05830518 0.4752202 -0.51507044 -0.15510215 -0.03429919 -0.4284235 -0.32747295 -0.332839 -0.43264464 -0.61798304 -0.50918645 -0.25685063 -0.18116404 -0.66533947 0.2611163 0.7409031 0.9421755 0.58349043 -0.45840573 0.9844572 0.763021 0.8790932 -0.26070872 0.17158791 -0.19950037 0.12116615 -0.36530975 -0.023776656 0.26648074 0.22497182
181 0.20165834 -1.1777685 -0.4362426 -0.12846208 -0.33518448 -0.063878916 0.0509293 1.1411533 0.0020438097 0.113210835 0.51446426 -0.42842695 -0.63216573 0.12966701 0.07335525 0.07494106 -0.17481236 0.07690997 -0.32705516 0.37721267 -0.32421997 -0.62230104 -0.22528383 -0.6814649 -0.46228415 0.14913791 -0.037434284 0.26500934 0.9815419 -0.7484625 0.46843764 -0.21138549 0.32975766 0.36380687 -0.40716222 -0.04705063 -0.065202095 -0.44392025 0.10968723 -0.015172006 0.29670042 -0.47167948 -0.32366073 0.29918966 -0.6014212 -0.19494483 0.05256188 -0.5818628 -0.050681002 -0.3332042 0.29698604 -0.08410129 0.43387938 0.29784173 0.060119815 0.11913357 0.11253308 -0.5556471 -0.10435163 0.17755097 0.2823939 0.5746798 -0.036937412 -0.061384156
260 -0.06266748 -0.55245936 -0.053334802 0.5278901 0.28647187 0.046881683 -0.5412035 0.1139668 0.83085203 0.39460742 0.35066172 -0.6889815 -0.25548545 -0.0793507 0.13573463 0.07102919 -0.21533686 0.14950109 -0.81209433 -0.5883904 -0.48249444 0.06909308 -0.03790388 0.33203834 -0.3264806 0.73052627 -0.046160996 -0.46420708 0.19516677 -0.45613137 0.78870565 -0.48969686 -0.16530661 0.8400807 0.19280718 -0.28418767 -0.056696497 0.1629891 0.318261 -0.15881155 0.30894092 0.018129412 -0.3800515 -0.30531654 -0.7763568 -0.3952006 0.023215458 -0.44986874 0.4783408 0.34563336 0.5580514 -0.24642529 0.19310258 0.44874483 0.4919285 0.72069633 0.26126704 -0.44140133 -0.3244288 -0.315921 0.026652759 0.19572201 0.51436055 0.10667068
146 0.10009133 -0.3063627 -0.39965156 0.07459705 -0.9778479 0.0983651 -0.34489772 -0.0190278 0.23785862 0.022714516 0.4449628 0.5735053 -0.39283508 -0.35924423 -0.00529018 0.93669105 0.28447413 -0.14619337 -0.46729547 -0.5111923 -0.5101458 -0.4474703 0.13757408 0.14900674 -0.17385207 0.5632586 -0.44594824 0.35174543 0.54477376 -0.022146255 0.06867698 -0.49964795 0.15278375 0.57604474 0.44739285 -0.48405725 -0.38894314 0.024076885 -0.02643282 -0.22324766 0.20360376 -0.35941508 -0.43311995 0.27674848 -0.15497613 0.087910175 0.07166554 -0.58975095 0.30270293 -0.0030687873 0.11628599 0.0883294 0.74750674 0.4246014 0.13627857 0.23384362 -0.18071647 -0.58147454 -0.2779455 0.8942554 -0.50346065 0.2811617 0.87038904 -0.49511862
121 -0.45810005 -0.7899883 -0.13526314 -0.011518297 -0.23670125 0.2148449 -0.5093937 1.0228199 0.94701123 0.40587103 -0.20689397 -0.60636693 -0.31906927 0.801626 -0.4523079 -0.3387516 -0.60661066 0.19417308 -0.52458143 0.14396171 -0.64624697 -0.015027308 -0.36140838 0.06674904 -0.2895466 -0.24275607 0.05508557 0.569884 0.5352411 -0.3169391 1.2362937 0.88334894 0.6284022 0.22764474 -0.4278305 0.33240148 -0.3693631 0.52023244 0.0502407 0.06929541 -0.8436405 -0.8269349 -0.28076905 -0.65907264 -0.056871176 -1.0507389 -0.24263464 -0.6736497 0.6272938 -0.15260142 0.8972 0.17319725 0.11742689 -0.16229632 0.5383378 0.88511324 -0.0056579523 0.05060868 0.4578971 0.1779477 -0.32807764 0.04356033 0.5138194 0.005010126
294 -0.042453215 -0.9057068 -0.06941165 0.41565758 -0.24564253 0.04254467 -0.039196376 0.46497136 0.14206086 0.660677 0.2817714 -0.18721738 -0.18035975 0.52960336 0.08919496 0.5358421 -0.052288678 0.49502274 -0.82217395 -0.5657611 -0.29593727 -0.2822512 -0.6071101 0.49659175 -0.2777242 -0.12251219 -0.3249139 0.28490385 -0.14641237 0.23863116 0.4024344 0.19413725 -0.06354252 0.062715136 -0.005355774 -0.11080742 -0.013205704 -0.58329064 0.10789555 0.06349456 -0.18160428 -0.7101393 -0.9207148 -0.6770398 -0.24175112 0.08275851 -0.7184418 -1.01322 0.55046517 0.16656385 0.2302576 0.026822353 0.33197105 0.5355932 -0.10154306 -0.30467606 -0.6510437 -0.25887302 -0.2877345 0.42601967 -0.30429903 0.4952607 0.080291495 0.42649442
64 -0.5845247 -0.78942937 -0.16917042 -0.2609445 -0.80456203 0.8542537 -0.64011645 0.057713017 0.52523756 0.77822995 0.87176377 -0.08832769 0.03403916 -0.12475146 0.35904175 0.2976961 -0.6928434 0.3964855 0.057090696 0.26835692 0.3677176 -0.97302264 -0.12841494 0.42815518 -0.87535864 0.1605537 -0.5219924 0.24260792 0.628354 -0.4824997 0.7235921 0.5814122 -0.13596462 0.6833934 -0.0030240018 -0.033283178 -0.13801476 -0.28563768 0.31740963 0.022183482 0.2697403 -0.47171456 -0.07244157 -0.24455206 -0.5609108 -0.0025717188 0.21707083 -0.78861266 0.36157385 -0.2616301 0.34746432 0.76543015 -0.64729893 0.46552482 0.34883064 0.35199237 -0.2462242 -0.01780559 -0.4016689 -0.2042821 -0.51275265 -0.06309395 0.7052222 -0.3532617
147 0.030749137 -0.099804625 -0.5835038 0.06628838 -0.97870505 0.08111383 -0.421964 -0.12536153 0.37967396 0.12025109 0.23738335 0.36218688 -0.55415213 -0.39685518 0.0006363091 0.80019003 0.38304892 -0.09144504 -0.44041365 -0.46806192 -0.62179506 -0.40197754 0.29792163 0.13447064 -0.34433913 0.6183426 -0.3267295 0.321688 0.7111731 0.11464138 -0.00047218823 -0.4711052 0.23297311 0.55421764 0.33906198 -0.50356954 -0.43443096 -0.21081403 -0.12314213 0.037595198 0.16790177 -0.49068138 -0.46217415 0.2034867 -0.03893306 -0.1271719 0.15490767 -0.8622846 0.33484295 0.13884932 0.10595025 0.11846123 0.72468525 0.37573832 0.100883774 0.18280028 -0.2697564 -0.5003393 -0.16762403 0.8605763 -0.37790072 0.07193152 0.821848 -0.41270027
182 0.16032833 -1.1385623 -0.3254603 0.0026007602 -0.39609402 -0.009396013 -0.11145095 0.97916424 -0.025093023 0.13510881 0.59922767 -0.38872442 -0.67238736 0.09122836 0.06709456 0.1564006 -0.27594638 -0.06443949 -0.33065027 0.31928694 -0.25915363 -0.62252724 -0.11247182 -0.76112944 -0.3300842 -0.24245659 0.13420935 0.16213453 0.82767373 -0.8090983 0.43347797 -0.22119397 0.4960593 0.332691 -0.32019514 -0.09435557 0.081336014 -0.47003606 0.027895117 0.18910505 0.14066263 -0.52892965 -0.485668 0.1605448 -0.795525 -0.2777647 0.014348942 -0.3907636 -0.0052874503 -0.3280025 0.3251688 0.13511387 0.52310705 0.39260703 0.030403916 0.03360255 0.23685567 -0.70180506 -0.04486973 0.12863904 0.21805142 0.6358379 0.110956304 -0.05861948
134 -0.0782084 -0.1088831 0.28763917 -0.12310309 -0.64856815 -0.09310285 0.022058168 0.3462653 0.92864037 0.7791881 0.41816646 -0.20495504 0.24098353 0.3058645 0.18393023 -0.2606039 -0.17135009 0.053574603 -0.31078866 -0.56009567 -0.52601856 0.18671967 0.24033894 0.05219438 0.07810706 -0.43178472 -1.0789471 0.3191841 0.77513266 -0.44503137 0.6031891 -0.8907559 0.1604537 -0.17926538 -0.122543015 0.4779349 -0.333162 -0.3355074 -0.015042081 -0.86875606 0.038042493 -0.6344689 -0.20419636 -0.011996785 -0.83259207 -0.15402643 0.06554094 -1.4937173 0.38381118 -0.2662985 0.6573131 0.28960353 0.16721486 0.30920792 0.5500539 0.23805733 -0.7877212 -0.4723272 0.6244343 -0.03488805 -0.28547472 0.27895272 0.28171003 -0.68439895
261 -0.03817393 -0.5992016 0.004027103 0.5870571 0.20127508 0.14271171 -0.41486987 0.05742839 0.70921296 0.44771418 0.28683075 -0.79554033 -0.2958247 0.043613046 0.11828705 -0.035954338 -0.19489361 0.06452393 -0.7679092 -0.47650513 -0.4431879 -0.14948536 0.054070096 0.30406392 -0.3894017 0.6464337 -0.1573424 -0.5528257 0.30038872 -0.31780452 0.6367524 -0.5618033 -0.16060908 0.9184861 0.21264352 -0.39543733 -0.12228428 0.02280593 0.345488 0.01338474 0.2728923 0.07743038 -0.18544677 -0.22487295 -0.5859375 -0.44416744 0.07779817 -0.48073322 0.6821295 0.5420194 0.8279287 -0.3190091 0.14845721 0.42154628 0.6272829 0.4980896 0.18216762 -0.5042002 -0.13324612 -0.34558508 0.018011322 0.17779045 0.4919668 0.19784066
295 0.0845057 -0.91941667 -0.30148482 0.33565024 -0.30924785 0.14373046 0.0012607964 0.6006827 0.0062488234 0.7308992 0.5036167 -0.04804335 -0.1996739 0.40694472 0.11877972 0.4078669 0.09059373 0.7127939 -0.682155 -0.5197962 -0.23161769 -0.07771779 -0.56834066 0.6949969 -0.29194072 -0.06617774 -0.36130592 0.2912079 -0.18082528 0.26467773 0.511273 0.30854306 -0.16852175 0.14380081 -0.24135666 -0.019329919 -0.06323526 -0.42158917 -0.008731058 -0.0068474365 -0.23668484 -0.8843739 -0.7641093 -0.5861071 -0.25722912 0.0633885 -0.63369274 -0.88241774 0.6252648 0.23420154 0.30368757 -0.2067211 0.40716863 0.50503623 -0.026680617 -0.2584507 -0.7120744 -0.4493188 -0.35071582 0.26438105 -0.26905194 0.4708878 0.18958445 0.28389516
148 -0.14409426 -0.22256951 -0.6345078 0.064844 -0.97979355 0.024136174 -0.48515144 -0.16025244 0.21317786 -0.13198258 0.24302034 0.3629144 -0.2893136 -0.34953564 0.10431247 0.8410293 0.45177132 -0.108106576 -0.53422344 -0.49668992 -0.71475285 -0.48451516 0.13703117 0.047007754 -0.26663554 0.51195437 -0.43896484 0.30141717 0.5040603 -0.04557714 0.039413825 -0.31631663 0.35734084 0.5579966 0.14300928 -0.3358154 -0.5685367 -0.0068457206 -0.11777313 -0.06147396 0.15492207 -0.49816245 -0.4379208 0.10243274 -0.120936275 -0.022982152 0.21428469 -0.72013664 0.37672272 0.037520368 0.1061344 0.021494085 0.869496 0.2967733 0.17280464 0.22024025 -0.2689948 -0.63126856 -0.2292575 0.73175186 -0.41706538 0.08932629 1.0146458 -0.3976867
216 0.21219736 -0.44000015 0.2698695 -0.4093873 -0.24256665 -0.17948826 -0.22755525 0.7812166 0.64829654 0.25318322 -0.6101328 0.067206904 -0.42462376 -0.058736525 0.6070671 0.30249488 0.41390797 -0.49229285 -0.45645297 0.39536935 -0.24665278 -0.44046527 -0.11732091 0.37521213 -0.5763575 -0.28304875 -0.4447431 0.6077266 0.5318834 0.013364883 0.9459495 0.1926629 0.00859035 1.0477597 -0.040041074 -0.2695111 0.36494827 -0.14875348 0.20469145 -0.3363227 -0.5591447 -0.15375897 -0.41497216 -0.63292754 -0.67879903 0.07716262 -0.021205956 -0.28004965 0.45214656 0.42786282 -0.36305162 0.11369864 0.016316932 0.82845217 0.5420385 0.4833509 -0.4547427 -0.653237 0.4676542 0.17370282 -0.06832473 -0.12907849 0.3658991 -0.3405818
26 -0.5517385 -0.501756 -0.1648693 0.11407551 -0.2963693 0.061607357 -0.37740535 0.28104547 0.6401148 0.12272677 0.24201764 -0.21689174 -0.66081214 0.17679137 -0.22972697 -0.14442718 -0.2950566 0.31358314 -0.88693213 0.12281355 0.49192244 -0.7099833 0.16044973 0.44981763 0.6224483 0.24039711 -0.25168836 0.57407075 0.38053495 -0.14688256 0.5364174 0.41710097 0.60890734 0.7804636 0.46043953 -0.19110169 -0.07351841 -0.27582622 -0.19006608 -0.6633339 0.23085412 -0.6101738 -0.29557458 -0.6156544 -0.09053347 0.33206204 -0.7145921 -0.93226296 -0.01457195 0.23446828 0.6010598 -0.36753148 0.2209478 0.18710436 0.21989244 -0.16244103 0.40320632 -0.47347623 0.56682086 0.042972337 0.3166805 0.20969759 0.5661579 -0.97943395
183 0.13707167 -1.0897435 -0.27170697 0.027999261 -0.59953684 0.10581112 0.06065889 0.84177744 -0.002992138 0.21656391 0.3700073 -0.46742603 -0.49025404 0.16201445 0.012834797 0.21914265 -0.16889045 0.10500053 -0.38363168 0.3358105 -0.3136521 -0.5507603 -0.26941514 -0.94108444 -0.48823738 -0.14201519 0.069092646 0.072818734 0.880807 -0.8340174 0.45341635 -0.108605735 0.4850913 0.48757106 -0.25320795 -0.0344016 -0.0510434 -0.53242946 0.054196957 0.00725108 0.21286963 -0.41865572 -0.2823352 0.18949933 -0.73065084 -0.37342393 -0.015497637 -0.5663658 -0.13727704 -0.3178872 0.2210911 -0.080711104 0.4794367 0.45056033 0.057992365 -0.005829927 0.24876921 -0.7296919 -0.05696366 0.2528653 0.23546322 0.6159458 -0.08146331 -0.11132138
262 0.04597127 -0.69412386 -0.073791824 0.5418026 0.20356578 0.09459666 -0.50546175 -0.0953611 0.82541215 0.4105246 0.30078295 -0.6105118 -0.27746433 0.024551095 0.09716443 -0.0661083 -0.04706821 0.11926352 -0.5990383 -0.44147816 -0.39182013 -0.147731 0.09577294 0.25471586 -0.283505 0.69808763 -0.13956234 -0.58078295 0.23481874 -0.53176093 0.86989206 -0.5385606 -0.06526107 0.7970542 0.28507403 -0.4614703 0.05186361 0.19705965 0.3624757 -0.27740937 0.21511348 -0.09557449 -0.31703302 -0.23555526 -0.6275255 -0.45096144 0.038908873 -0.5074659 0.70630705 0.49515715 0.5617384 -0.3349984 0.21689881 0.33418378 0.42156157 0.5218019 0.14760377 -0.33027792 -0.140479 -0.50832564 0.014120505 0.32884187 0.58314985 0.24137598
95 0.6624865 -0.5622187 -0.36586866 0.35386315 -0.38027713 0.16450717 -0.07871494 1.3246592 0.37735814 -0.011527856 -0.19015338 0.009603 0.08829367 -0.4332246 -0.044902977 0.285238 -0.07560973 -0.049776062 -1.462973 -0.055415343 -0.8065861 -0.10549923 0.37243438 -0.49580702 0.5502205 -0.22568233 -0.020609843 0.13836408 0.6032716 -0.085321434 0.32263777 0.21817107 0.37511694 0.29496405 0.5281849 -0.48859563 -0.49839416 -0.17359388 -0.014306003 -1.2107258 -0.26256755 0.21314791 -0.6058337 0.04313468 -0.07601227 -0.44919527 -0.36773488 -0.74988985 0.4853388 0.26857334 0.65060097 0.28516984 -0.029717479 0.019151846 0.4817888 0.28555796 -0.23667684 -0.30355543 0.38885236 0.046147224 0.06171417 -0.17805754 0.4951631 0.35116458
185 0.18096355 -1.1007406 -0.39348167 0.07943451 -0.5486004 0.20705333 -0.0490777 0.85279286 -0.10190197 0.23304753 0.54037184 -0.5885428 -0.6208604 0.060699917 0.11555111 0.058014754 -0.19991148 -0.11971261 -0.57024884 0.29420772 -0.27046555 -0.6847368 -0.080344245 -0.88078296 -0.4305603 -0.38169113 0.15803607 0.10914344 0.8059159 -0.67656595 0.39819497 -0.23098588 0.47389942 0.3612637 -0.27353716 0.007188166 -0.030256229 -0.40430397 -0.008349601 0.11758694 0.049035456 -0.44824797 -0.21136692 0.08903107 -0.6781057 -0.47905517 0.06500792 -0.5490835 -0.14134252 -0.28270844 0.25965875 0.003572323 0.32891932 0.5013564 0.045318205 -0.071993575 0.2655217 -0.82407135 -0.13377652 0.25764734 0.11764006 0.5418879 -0.06286859 -0.19196115
5 0.015945813 -0.4692121 0.07906993 -0.27219298 -0.65059286 0.15383908 -0.9352229 0.35394275 0.562455 -0.12742862 0.031756204 -0.075920716 -0.3722026 -0.6609909 -0.008850874 0.0028727893 0.81119883 0.50671464 -0.3548419 0.2154443 -0.09338384 -0.49744365 -0.7017716 0.032439966 0.071552426 0.1695849 0.62664026 0.6705553 0.7327182 -0.20269668 0.7571374 0.48666096 0.18738785 0.29205415 0.3108788 -0.22950248 -0.4742032 0.18309812 -0.0016426004 0.27980202 0.40378514 0.17663008 -0.23121946 -0.6079211 -0.051933702 -0.32213318 -0.6736714 -0.4545994 0.84526557 0.076659806 0.859775 0.30394456 -0.21960567 0.4183027 0.41995057 0.18467829 -0.289744 -0.64181095 -0.42010504 0.38453746 0.19338492 0.894784 0.39717978 0.42508245
149 -0.03357407 -0.23047796 -0.6909811 0.15998444 -0.87120694 0.12554775 -0.6031194 -0.14980325 0.38004285 0.0006753154 0.1897491 0.4118833 -0.43201298 -0.27577144 0.07560085 0.7675238 0.30517933 -0.24070196 -0.4765505 -0.5952887 -0.53677297 -0.4143716 0.16058698 0.03489825 -0.26775575 0.30831632 -0.27752998 0.39231533 0.64240724 0.21457411 0.05795641 -0.41628474 0.36380297 0.5758764 0.25098318 -0.42111793 -0.47980085 0.054402374 -0.23296814 -0.027522728 0.16823219 -0.56746227 -0.5696982 0.13492247 -0.08720207 -0.13064215 0.28150472 -0.7226168 0.2814568 -0.0009700412 0.16794887 0.13962354 0.8601134 0.14929862 0.11909317 0.3463241 -0.3297569 -0.4645643 -0.25144523 0.844392 -0.36004668 0.17156363 0.9797917 -0.4280942
263 0.060894 -0.5183618 -0.0794846 0.5819213 0.08620844 0.121803805 -0.45985252 -0.13577153 0.8013462 0.48285952 0.27337986 -0.8486252 -0.31523776 0.046458118 0.0388153 -0.15603326 -0.084779434 -0.020130342 -0.84725964 -0.4669235 -0.49086213 -0.3074744 -0.02278576 0.22366504 -0.2749988 0.61320156 -0.10618625 -0.46890455 0.16902879 -0.38679013 0.7469976 -0.43728405 -0.14556159 0.8765339 0.22426979 -0.32395864 -0.005195053 0.030392366 0.31498575 -0.10347966 0.27234885 0.11609589 -0.16322188 -0.14114498 -0.7947773 -0.42613763 0.23161523 -0.50560194 0.64444685 0.5921521 0.6582591 -0.3397538 0.23959294 0.40616968 0.3588373 0.47439912 -0.03610674 -0.30761048 -0.15102515 -0.4529222 0.01294081 0.34661263 0.6561181 0.2941312
239 0.30576205 -0.48911193 -0.44901112 0.031116597 -1.4232919 0.038176723 0.06029681 0.15479334 0.23717819 0.039692096 -0.08867167 -0.36795977 -0.19719523 -0.088288695 0.12975994 0.534021 -0.515639 -0.2308813 -0.7203507 -0.07977883 -0.089716434 -0.4147255 0.013677919 0.41996327 -0.16922645 0.3867285 0.073088825 0.13547927 0.7052026 0.030565776 1.0292083 -0.055260863 -0.67518115 -0.37579516 -0.05062577 0.50094485 0.35725927 -0.18933974 0.3922092 -0.4135685 -0.16691017 -0.53105754 -0.5997984 -0.59664893 -0.64139247 -0.30700967 -0.09554288 -0.33848694 0.56785214 0.20775802 0.83001006 -0.090313986 -0.4338408 -0.48356876 0.4615639 0.049941406 0.19930442 -0.45931962 0.14812744 0.81158316 0.50610846 0.029562196 0.6073564 -0.23246771
150 -0.13519803 -0.07372461 -0.7449178 0.1656295 -0.8930502 0.07957318 -0.33807665 -0.17773022 0.34045708 -0.059192255 0.19031954 0.29877436 -0.43240336 -0.46844736 0.095333904 0.8673818 0.43171164 -0.1711415 -0.37654507 -0.5749587 -0.6054686 -0.5526869 0.12611865 -0.0694126 -0.2856458 0.51219887 -0.46627364 0.35346317 0.62099445 0.03242046 0.19548085 -0.39403534 0.43687075 0.540139 0.42300355 -0.31080282 -0.5750611 -0.031681255 -0.08564849 0.1011763 0.047418512 -0.58700585 -0.48280782 0.17670561 -0.017990021 -0.24295509 0.11935075 -0.8627617 0.44647375 0.03365429 -0.013253472 0.13928233 0.7954424 0.17927273 0.22361225 0.18310517 -0.22559124 -0.5890083 -0.1716967 0.61972034 -0.48713657 0.15753552 0.8425256 -0.3646185
184 0.10480502 -1.0393193 -0.25913143 0.043581933 -0.50984263 0.10796673 0.065337166 0.88238454 -0.092804156 0.26443964 0.53718734 -0.26193884 -0.5874372 0.23391691 0.052359283 0.044191107 -0.17189543 0.039607886 -0.46426225 0.41809288 -0.3131024 -0.514403 -0.09131635 -0.9281572 -0.5626148 -0.25028494 0.26963353 0.06204126 0.9633445 -0.6598105 0.49360564 -0.25064996 0.5922051 0.39432728 -0.38630557 -0.09055966 0.066041045 -0.46416447 0.0596359 0.040200494 0.18815576 -0.5340329 -0.27619562 0.22742565 -0.7199444 -0.26695713 -0.011241799 -0.53666294 -0.08061577 -0.2958576 0.28075093 -0.27471337 0.2722357 0.45994586 0.094508246 -0.0069111213 0.2094094 -0.685571 -0.063223116 0.25553456 0.1835076 0.6850967 0.22185747 0.02280114
296 -0.12927397 -0.9960135 -0.26073965 0.18434618 -0.30537185 0.19086085 -0.051157966 0.37954873 0.07574784 0.6375212 0.3601675 -0.19858319 -0.2023036 0.5840496 -0.027854938 0.4117457 0.117625624 0.6069419 -0.64403313 -0.51545066 -0.13965786 -0.17654227 -0.6580465 0.60921425 -0.36813754 -0.07761429 -0.4282552 0.35502756 -0.24141161 0.18657756 0.59666216 0.06330498 -0.15992703 0.10832148 -0.16120957 -0.10351239 0.041617762 -0.3885575 0.07422449 -0.011719874 -0.17310707 -0.8825874 -0.8574924 -0.7052927 -0.18928844 0.022402698 -0.6285665 -0.89834684 0.6554752 0.24002564 0.2459112 -0.12940094 0.52337056 0.58039427 -0.062812895 -0.26347452 -0.61667347 -0.49182197 -0.3303413 0.4217498 -0.25847208 0.4867966 0.022670956 0.30435884
264 -0.033302967 -0.6348537 -0.026218047 0.47752732 0.0015023298 0.18838048 -0.4565936 0.01725394 0.7019697 0.535377 0.10440532 -0.7565932 -0.31373584 0.040433902 0.08187343 -0.033913657 -0.019164491 0.0347862 -0.46889475 -0.514754 -0.49491793 -0.23470613 0.04507452 0.2763418 -0.19814873 0.7297285 -0.16851379 -0.681023 0.23428881 -0.5085648 0.7198872 -0.38322154 -0.11681864 0.9324333 0.29401848 -0.3839953 -0.05744739 0.04621487 0.42735055 -0.15547918 0.2808911 0.05774514 -0.22009644 -0.1017528 -0.7412373 -0.64113444 0.039556466 -0.5441696 0.7777829 0.57136774 0.70643675 -0.39255524 0.1832069 0.34929425 0.52894104 0.16157266 0.002223064 -0.27848393 -0.06542599 -0.5123489 -0.0016438074 0.29498965 0.56836516 0.1557025
297 0.009411758 -0.900122 -0.3836368 0.14205742 -0.27231827 0.08306675 -0.03729167 0.5007542 0.12082322 0.7655039 0.60104126 -0.0368642 -0.3541189 0.48312154 0.09039427 0.26103646 -0.009409146 0.6990433 -0.7004638 -0.6418363 -0.11890075 -0.15568303 -0.7079587 0.61313397 -0.33984345 -0.13641292 -0.310056 0.3320021 -0.16456519 0.3337785 0.65084195 0.13022155 -0.08033193 0.15916155 -0.09355262 -0.0019807133 0.003049552 -0.39951304 0.039227508 0.0330521 -0.23092857 -0.79094225 -0.7578382 -0.6248831 -0.32293186 -0.06064767 -0.5257763 -0.82923037 0.4943586 0.2552918 0.31814066 -0.2241174 0.3851502 0.5182164 -0.054367665 -0.37905964 -0.7447556 -0.36467648 -0.37071562 0.46778795 -0.35926107 0.45851797 0.20466009 0.2799315
151 -0.118380055 -0.21796723 -0.6831024 0.12496525 -0.86787444 0.12224549 -0.439034 -0.19684125 0.47421232 0.05596275 0.13062073 0.52780586 -0.5046892 -0.2770237 0.082349315 0.92615414 0.46089163 -0.23644084 -0.5179841 -0.4947812 -0.6510208 -0.28950503 0.09101698 0.05139917 -0.31056303 0.5180184 -0.35511437 0.28003687 0.5318525 -0.032065332 0.17226738 -0.26722333 0.51208735 0.5655769 0.075036526 -0.2195943 -0.5926379 0.013931701 -0.14930654 0.021876426 0.028986089 -0.6639554 -0.47623244 0.36501217 0.007713386 -0.09046178 0.1191557 -0.7316258 0.36289036 -0.020704815 0.21286817 0.06862315 0.6879844 0.15491334 0.1412258 0.27005848 -0.30904952 -0.72281075 -0.26323348 0.66890395 -0.28608355 -0.033265486 0.96741873 -0.4814668
187 0.08776292 -0.97559655 -0.42980486 -0.0020038 -0.5902013 0.2725225 0.07349813 0.75616664 0.044443287 0.28165117 0.508356 -0.44177267 -0.44433382 0.17880242 0.08089215 0.028069349 -0.098209426 -0.062169664 -0.48444736 0.26870394 -0.41002172 -0.5155612 -0.036687568 -0.8593465 -0.44533205 -0.33720496 0.39962962 0.02121389 0.93535805 -0.6461567 0.59467286 -0.25078914 0.61815554 0.44764727 -0.18400657 -0.2373565 0.0901588 -0.5647014 -0.1222757 0.08083603 0.12446697 -0.6092289 -0.13233918 0.056423392 -0.7654786 -0.4070373 -0.033030156 -0.49164918 -0.28970915 -0.28247732 0.2516267 0.032606605 0.19578467 0.44221684 0.07603721 -0.10582646 0.14283349 -0.84673 -0.06298836 0.26245743 0.12449374 0.6566045 -0.13058436 -0.024140967
152 -0.1532313 -0.19328704 -0.8280455 0.10728144 -0.7078748 0.08816604 -0.5279877 -0.25868535 0.48567033 -0.0364243 -0.020909674 0.43937868 -0.34012714 -0.16334997 -0.0058578313 0.80798817 0.3560901 -0.38496268 -0.4816852 -0.5424999 -0.5998489 -0.4268428 0.12457736 0.03009666 -0.31955838 0.34805307 -0.24530438 0.37763286 0.72839135 0.013004743 0.26651746 -0.31072235 0.56328744 0.44881907 0.28459272 -0.3780012 -0.53470606 0.021845328 -0.10913551 0.05022504 0.077506766 -0.63234836 -0.43172276 0.31206855 -0.047879197 -0.12555473 0.18551864 -0.9230005 0.48333552 0.033114705 0.07468195 -0.09879927 0.68828446 0.10103962 -0.15260564 0.36375198 -0.3328771 -0.65331256 -0.18421982 0.7414959 -0.46099943 0.07324344 0.94515795 -0.31363422
186 0.09349983 -1.1551764 -0.15190254 0.08794561 -0.59270394 0.121361524 -0.099094905 0.7855459 -0.018849859 0.32774732 0.47785574 -0.28636074 -0.52887577 0.21256253 0.053743146 0.1888373 -0.10938034 -0.11524386 -0.58238995 0.5779372 -0.37286556 -0.5266901 -0.21896705 -0.86545646 -0.45641786 -0.30673218 0.18294182 0.07775925 0.8465773 -0.65511113 0.5572774 -0.3906935 0.5615902 0.4537462 -0.14341667 -0.13949028 -0.12667851 -0.51890033 0.07329484 0.08775202 0.099155016 -0.5361164 -0.33943242 0.16869396 -0.59888405 -0.39042297 0.053742792 -0.5295943 -0.3219919 -0.36870536 0.40982345 -0.1258246 0.22738646 0.42411253 0.06593188 -0.08683376 0.24734534 -0.69956046 -0.18910474 0.14984323 0.15289505 0.5351045 -0.17425627 -0.16082326
265 0.09050499 -0.58111984 -0.13789955 0.45687658 0.026988458 0.065199696 -0.72267514 -0.090740785 0.81283236 0.53262216 0.071230985 -0.7821331 -0.2265574 0.10885857 0.10576719 -0.16367699 -0.086876675 0.053500157 -0.67367566 -0.5180465 -0.36132953 -0.4569244 0.101284005 0.2787815 -0.25605303 0.5455987 -0.045652717 -0.6629202 0.027135402 -0.51552886 0.64413244 -0.44782862 -0.11034467 0.8386211 0.30216053 -0.40873042 -0.052809373 -0.00066560606 0.453999 -0.27394715 0.11589252 0.0071466374 -0.371348 -0.095959015 -0.6537654 -0.4729966 0.19691756 -0.48931962 0.5692722 0.45816764 0.6522578 -0.47573483 0.17120805 0.3115482 0.46626276 0.49482253 -0.059104417 -0.3668975 -0.11461991 -0.43732044 0.042421766 0.52470124 0.6255134 0.2146217
153 -0.14703082 -0.23149347 -0.7785858 0.23417023 -0.8031745 0.17100002 -0.34029472 -0.23254758 0.5676152 -0.043773957 0.019687837 0.44839722 -0.46536395 -0.2546904 0.14434575 0.8966454 0.31394175 -0.2994074 -0.5221831 -0.44356903 -0.48996857 -0.47375852 0.114302844 -0.06035385 -0.33016905 0.24122356 -0.49014768 0.3174784 0.5559952 0.031548034 0.341482 -0.36965913 0.5688694 0.48860607 0.2976545 -0.17321925 -0.7076011 0.22640485 -0.22777396 0.07698892 0.10119511 -0.66728055 -0.36183012 0.33497006 -0.03299186 -0.12644912 0.021233523 -0.73266286 0.42408332 0.19663323 0.049164467 0.124123685 0.78204966 -0.04252033 0.19044591 0.274088 -0.3390609 -0.68634254 -0.27306256 0.6204204 -0.4330957 0.223026 1.0194418 -0.34348452
188 0.081219204 -0.86962396 -0.4062748 0.12192648 -0.6760965 0.10987154 0.014069671 0.81265414 -0.051796872 0.49133247 0.4596988 -0.43079334 -0.5075818 0.08512194 0.09167002 0.1498162 -0.1606412 -0.07000859 -0.68299806 0.46509835 -0.24266258 -0.65748274 -0.1257959 -0.9187656 -0.41028157 -0.31436014 0.2212368 -0.06314374 0.8381144 -0.53894067 0.5349021 -0.2533041 0.62199116 0.50840443 -0.38042673 -0.05368582 0.02181433 -0.5052239 -0.012721203 0.0009528696 -0.028517779 -0.4661877 -0.09796541 0.18288831 -0.5876278 -0.3787724 0.02500796 -0.5887282 -0.13940902 -0.3555025 0.33058134 -0.05925654 0.17114383 0.49313492 0.12155734 0.011146074 0.3046295 -0.8990501 -0.23845358 0.18432361 0.037221868 0.69057953 -0.16942948 -0.14011618
154 0.03066536 -0.17219037 -0.7449083 0.1813146 -0.8154157 0.28199604 -0.33071747 -0.33143476 0.5340789 -0.02474168 0.102402575 0.35023317 -0.3801166 -0.3135333 0.29678723 0.79472125 0.43504813 -0.4550641 -0.4245152 -0.6140634 -0.43918318 -0.28106493 -0.01850279 0.07012394 -0.2807032 0.25753334 -0.32232675 0.37395656 0.8560692 0.10559118 0.174115 -0.31482324 0.6133089 0.5943063 0.2404161 -0.35182354 -0.60355186 0.06701072 0.030008312 0.15584537 -0.040795106 -0.81621814 -0.41099417 0.44671136 -0.06903281 -0.13882121 -0.08250864 -0.80002433 0.39093393 0.11691696 0.22793771 0.05395011 0.7310084 -0.020683711 0.0870598 0.24389666 -0.3097314 -0.6416932 -0.2555348 0.5320941 -0.35124683 0.06016796 0.9709366 -0.42143697
127 0.6029998 -0.6686781 0.5164374 0.005838972 -0.8258213 -0.24121907 0.17010058 0.6351923 0.42816523 0.5042307 1.1674296 -0.98692983 -0.39511222 -0.0265392 -0.63343096 0.08256782 0.03306641 1.06171 -0.4622233 0.8494175 -0.7328529 -0.27709505 0.14033657 0.4016059 -0.33569294 0.04140516 -0.017116917 0.378381 -0.14356497 -0.12966321 0.4833803 0.15575297 -0.084902376 0.24578294 0.17682506 -0.82374704 -0.0314633 0.19556244 0.5305704 -0.9011602 -0.4249971 -0.28108254 -0.034784887 -0.75460964 -0.8098004 0.14323223 0.13478342 -0.5214969 0.43360215 -0.07887032 0.78663015 0.3973013 -0.0605894 0.90548384 0.6074195 0.5109089 0.1395064 0.0071318555 0.46561095 0.92678314 -0.25832468 0.48854333 0.26074383 -0.56219184
266 0.013946442 -0.637477 -0.17523815 0.48257095 -0.004981123 0.20633528 -0.4098779 -0.19203089 0.7558677 0.46036214 0.13421565 -0.9814706 -0.19420774 0.054602258 -0.038687233 -0.15719844 0.063787036 -0.082485236 -0.7208229 -0.5102144 -0.53313583 -0.5414594 0.0018987794 0.23466587 -0.29200745 0.52732885 -0.21536005 -0.44181606 0.08941461 -0.59662473 0.70985156 -0.41466305 -0.111875884 0.8127072 0.36936682 -0.5367087 -0.08613502 0.17976162 0.42515138 -0.18906406 0.0871572 0.014693807 -0.18340072 0.0029761423 -0.8150484 -0.5140149 0.045460593 -0.38708508 0.7252318 0.59642607 0.58764136 -0.4276963 0.07800814 0.33642325 0.40119475 0.32610574 -0.108890645 -0.29176822 -0.12518032 -0.51742035 0.0714972 0.39075518 0.50002396 0.07638788
298 0.0053523434 -0.9183056 -0.39771688 0.17980343 -0.23484126 0.13777967 -0.05363175 0.4018998 0.009380864 0.8924561 0.5251677 -0.037378903 -0.3098222 0.488746 0.0016493344 0.39336744 0.120892085 0.549017 -0.6412615 -0.35908914 0.0072714104 0.04529074 -0.67907846 0.6107518 -0.38452265 -0.19483756 -0.45213667 0.2744057 -0.17322572 0.23297876 0.64087886 0.14685799 -0.08627192 0.105415985 -0.07781087 -0.18628846 0.055681065 -0.47148782 0.044235807 0.0029904249 -0.24654137 -0.9060537 -0.77981865 -0.6504796 -0.21828109 -0.045350384 -0.45920336 -0.8286904 0.8113031 0.28546998 0.49790975 -0.26773328 0.46689624 0.5178495 -0.12938596 -0.31251472 -0.6319046 -0.4582849 -0.34707275 0.3722359 -0.37352148 0.49744123 0.082343616 0.13492745
189 0.16468188 -1.0630573 -0.3136169 0.047806494 -0.45850116 0.3048402 0.12699181 0.7524653 -0.17486857 0.30988434 0.4612428 -0.36901152 -0.29411808 0.17385234 0.15450235 0.09168323 -0.19086069 -0.18411453 -0.5257041 0.4605375 -0.36148614 -0.6680071 -0.07279087 -0.76581585 -0.37118056 -0.30571142 0.24660896 0.07397947 0.77297515 -0.8058274 0.7427691 -0.3385867 0.73747826 0.4282326 -0.13445602 -0.21939288 0.0063111917 -0.48541132 -0.15610825 0.046812564 -0.0979454 -0.5550868 -0.10466494 0.12691952 -0.65728337 -0.35111904 -0.045738675 -0.5234719 -0.14012982 -0.35183385 0.34208316 -0.07025244 0.05345373 0.31767267 0.16494621 -0.039042085 0.24555476 -0.94896257 -0.35886705 0.2964864 0.053158678 0.7213904 -0.088176586 -0.22713861
267 -0.043739535 -0.48919347 -0.09639997 0.4786296 -0.13828944 0.030995375 -0.60515416 -0.02248919 0.7090441 0.51885474 0.16393687 -0.81585026 -0.17892331 0.15889741 0.1588456 -0.018840028 0.012367724 -0.011580766 -0.5992427 -0.5460097 -0.39727962 -0.3057543 0.12326427 0.1847602 -0.12193707 0.5346559 -0.08801811 -0.72118723 0.083368815 -0.58855236 0.76085275 -0.29602194 0.028148504 0.9740629 0.39269888 -0.38948655 -0.04126507 0.2206819 0.5517849 -0.35002416 0.31949347 -0.10747033 -0.25023827 -0.05359328 -0.8608747 -0.59001166 0.075556315 -0.38520595 0.7330229 0.5045663 0.58194095 -0.3441847 0.101620585 0.38598236 0.39815933 0.2066235 -0.11038793 -0.2608465 -0.08338451 -0.49340868 -0.02947784 0.521336 0.5610263 0.20864908
300 -0.022903392 -0.9495902 -0.42549068 -0.10320916 -0.25307786 0.056944255 -0.084452175 0.19130592 0.11032106 0.73145837 0.55962497 -0.22850758 -0.38085452 0.5583487 -0.02158137 0.28248873 0.2275567 0.65298164 -0.63465464 -0.50892866 -0.101182126 -0.16173758 -0.5880277 0.45232388 -0.37954453 -0.18837172 -0.4190766 0.30286762 -0.29089004 0.25029516 0.8264269 0.15507056 -0.19973361 0.15139736 -0.1654799 0.014577142 0.033829775 -0.4123849 0.19064772 0.12363227 -0.24246055 -0.9215859 -0.62672734 -0.70000625 -0.24938522 -0.002657312 -0.38484788 -1.0141242 0.53858787 0.41777974 0.44289428 -0.21980655 0.49080583 0.45916313 -0.00788803 -0.42725024 -0.7442037 -0.5594153 -0.47511464 0.40862036 -0.44358963 0.45622122 0.05135263 0.06757252
299 -0.0625676 -0.9579509 -0.19206761 0.07733047 -0.3263463 0.22916174 0.055216674 0.31740516 0.15089701 0.786337 0.59297335 -0.152641 -0.39575693 0.54106164 -0.111341834 0.24393009 0.29814118 0.5784151 -0.6031264 -0.54664785 -0.02991458 -0.2732951 -0.7787597 0.5594305 -0.43725836 -0.122835435 -0.47442472 0.3136691 -0.12609303 0.28522012 0.7321812 -0.034546204 -0.12228624 0.19380428 -0.1581641 0.027522953 0.018687546 -0.33854192 0.21320519 0.06365657 -0.19066802 -0.91834843 -0.8770918 -0.7035002 -0.18522699 -0.09563137 -0.5332121 -0.87113476 0.60414124 0.3164479 0.19237998 -0.28247675 0.38930303 0.39192078 -0.15604955 -0.27744573 -0.5960428 -0.3913841 -0.32938555 0.45598865 -0.34779528 0.53046674 0.13648371 0.15775457
190 0.15691102 -0.8850634 -0.39940515 0.016243568 -0.5091328 0.2886622 -0.04841528 0.7818582 0.1742315 0.41535535 0.52001894 -0.3895463 -0.29983956 0.23512357 -0.0029467603 0.17867745 -0.15559092 -0.22965719 -0.4311504 0.33754134 -0.42099845 -0.70499647 0.03664592 -0.92879486 -0.28950375 -0.36106262 0.31695086 -0.018415527 0.8644771 -0.6009603 0.6079445 -0.27716538 0.72284883 0.43829447 -0.12249457 -0.18565433 0.279635 -0.6248112 0.10196192 0.097214825 -0.041045733 -0.5652321 -0.11847155 0.051352516 -0.5739944 -0.42128897 -0.08796109 -0.67218053 -0.08043966 -0.39858934 0.32287872 -0.0073758056 0.12012904 0.45234478 0.06470167 -0.018078085 0.2967255 -0.91516834 -0.3063707 0.324022 0.1397014 0.59686625 -0.33079252 -0.19501062
268 0.034681413 -0.5974037 -0.08767411 0.3984583 -0.05252517 0.15328373 -0.6857959 -0.14852986 0.7137192 0.54439485 0.13447566 -1.0137435 -0.1795902 0.0891158 -0.0039388286 -0.068397716 0.00046077886 -0.20581974 -0.7065587 -0.33954826 -0.53649205 -0.4734813 0.047707144 0.2893616 -0.18386632 0.40353507 -0.13779376 -0.67869127 0.0837935 -0.42415062 0.6219186 -0.4557474 -0.058965024 0.9205344 0.3620325 -0.31699687 -0.07874047 0.14397548 0.63214636 -0.3716999 0.31265995 -0.075419 -0.38411465 0.039204553 -0.71934694 -0.4663738 -0.026598891 -0.33402395 0.7103588 0.489621 0.6958892 -0.38450474 0.091335095 0.370412 0.35004914 0.42762715 -0.16048585 -0.31153256 -0.15261553 -0.46117878 0.08236206 0.45493805 0.5033045 0.03233776
155 -0.24691376 -0.10176446 -0.9777981 0.17044005 -0.77142316 0.12815376 -0.27033165 -0.29085234 0.548522 -0.11447041 0.045882102 0.37390593 -0.35965824 -0.2689674 0.21818854 0.8435194 0.29989436 -0.4826786 -0.5660293 -0.30377674 -0.60074127 -0.30252954 0.061487835 0.18324402 -0.3014428 0.21769278 -0.38063928 0.3133621 0.6963028 -0.091406174 0.19007625 -0.2745464 0.6280272 0.48098904 0.22984153 -0.38594377 -0.60331404 0.11655291 -0.08668757 0.12593901 0.097699255 -0.68990916 -0.23796596 0.26764688 -0.15488563 -0.10133896 -0.04384809 -0.90787315 0.59379363 0.2448837 0.08768097 0.067474574 0.7022329 -0.02927846 0.01785308 0.29842848 -0.36365226 -0.7718268 -0.19700952 0.62911993 -0.43716204 0.23140793 0.9357804 -0.32158375
301 -0.14835313 -1.0128497 -0.33666646 -0.08916 -0.12636435 0.108733594 0.052778922 0.23431775 0.14497772 0.872577 0.67414415 -0.17600052 -0.17045285 0.3975798 -0.1312894 0.38262337 0.24854034 0.4776454 -0.76247036 -0.36471716 0.100894496 -0.19141732 -0.74537015 0.5385701 -0.41309434 -0.2198213 -0.37666476 0.2154137 -0.23015878 0.16146973 0.77057785 0.049936116 -0.07519578 0.2734221 -0.0532237 -0.01110197 -0.012833746 -0.38784847 0.06421506 0.00827176 -0.18759105 -0.8936189 -0.8134906 -0.6629005 -0.34088024 -0.1838516 -0.43377823 -0.7610615 0.71104056 0.30782542 0.3838152 -0.2870113 0.42395228 0.33400625 -0.1308766 -0.4852011 -0.78163123 -0.49431658 -0.28122747 0.5929622 -0.49156862 0.41260633 0.13021773 0.15343848
78 -0.27450013 -0.29708776 -0.14743741 0.75192136 -0.40483636 0.72130644 -0.7739939 0.5943121 0.50884414 -0.20982419 0.52674174 -0.204075 -0.10034008 0.056206584 0.022726672 -0.33048925 -0.111120895 -0.16031614 0.06306091 0.07728294 -0.011080367 -0.552056 -0.738325 -0.45931557 0.5610467 0.5258317 -0.0037338848 0.5426359 0.5494442 0.00027163507 0.4857762 -0.038150407 -0.00044087745 0.048055723 -0.5466422 -0.39897588 -0.39204794 -0.32107165 0.48334086 -0.8146633 -0.30225387 -0.73946315 -0.78632104 -0.3040024 -0.7732607 -0.16729783 -0.090720385 -0.25492534 0.44653535 0.7490673 0.4030519 -0.03370479 -0.2800118 0.26049662 0.6126581 0.127301 -0.4335701 -0.8622893 -0.014714053 0.28439388 -1.193086 -0.14705327 0.16819951 -0.2036188
217 0.23791105 -0.6381408 0.33436456 -0.638814 -0.114010125 -0.07708446 -0.0924522 0.7139533 0.6745969 0.104522035 -0.5828108 0.16062188 -0.5258693 -0.03493763 0.48200834 0.31078085 0.39947602 -0.36948428 -0.34461173 -0.034972254 -0.18548337 -0.5770012 -0.0149493115 0.39490393 -0.4397008 -0.17731397 -0.51498365 0.39757758 0.63097656 0.08114996 0.9001847 0.44063947 0.08340244 0.805071 0.028784988 -0.25387013 0.36445215 -0.011904119 0.20295426 -0.3968421 -0.72508305 -0.12274548 -0.3469014 -0.5316066 -0.8680882 -0.016497845 0.008461928 -0.26475182 0.40408036 0.38597256 -0.3063791 0.14487475 -0.06538305 0.8950987 0.501352 0.3828996 -0.50505805 -0.9868468 0.5304531 0.17148842 -0.05107326 -0.061279748 0.30589983 -0.33725548
191 0.21002048 -0.93080497 -0.37524727 0.05174956 -0.5676341 0.31043455 0.053998817 0.67332196 0.13484283 0.4394719 0.54381967 -0.21290903 -0.2570997 0.18421559 0.13913333 0.17467543 -0.25745618 -0.25071043 -0.7550521 0.31128246 -0.3541759 -0.70025873 -0.18624084 -0.8696691 -0.37335113 -0.36420763 0.26792085 0.10869128 0.7680777 -0.81142443 0.58555937 -0.3224534 0.70476085 0.5619357 -0.29934692 -0.11269329 0.1129551 -0.45236447 0.01305105 -0.07381384 -0.07597313 -0.56080574 0.01851036 0.011085384 -0.52230567 -0.33291823 -0.12529981 -0.5136971 -0.30798385 -0.40713522 0.31695288 -0.11880063 -0.03432825 0.40502197 0.14302264 0.13663048 0.17245871 -0.91164494 -0.32349098 0.31307626 0.14501959 0.78024006 -0.28205356 -0.14621341
49 0.55437595 -0.69744647 -0.5718272 -0.32571486 -0.6824432 -0.20971729 -0.10390808 0.6395479 -0.07217681 0.3444269 0.57954466 -0.1422383 -0.07655693 0.44255748 -0.8152923 0.6346998 0.41331956 -0.6813103 0.040352672 -0.3051109 0.25625056 -0.18546553 -0.34105405 0.08839612 -0.41063648 0.12847671 0.27415112 0.018731114 0.51158947 -0.43435338 0.9027586 -0.44538552 0.66947335 0.27875257 0.051778045 0.41932702 -0.24683812 0.091754876 0.038423773 -0.5257558 -0.29852408 -0.15155274 -0.51420635 -0.47026142 -0.39600486 -0.17398207 -0.20293887 -0.84360075 0.31761253 0.8459449 0.84289825 0.83217156 -0.4202927 0.9418621 0.71838593 0.8113366 -0.27846363 0.20697588 -0.29619393 0.2230861 -0.5567759 -0.19080505 0.23571628 0.16399634
269 0.019988498 -0.6437949 -0.23127331 0.44390076 -0.18300155 0.11448359 -0.50052947 -0.13743615 0.63913095 0.38828343 0.10286782 -0.9278036 -0.09805151 0.048774388 0.15838075 -0.11637554 -0.033489626 -0.03221416 -0.5442153 -0.36011925 -0.48021764 -0.31178638 0.07198988 0.16783592 -0.2007965 0.36348853 -0.13119175 -0.62859344 -0.041600756 -0.5399468 0.75916874 -0.5052788 0.015273764 0.92829007 0.52859765 -0.44112754 0.03181614 0.22943474 0.59072965 -0.39436385 0.27802232 -0.21679431 -0.2665433 0.08066733 -0.70378083 -0.48807347 -0.0956826 -0.30197313 0.8817167 0.49788246 0.6707502 -0.4658125 0.00959903 0.43888387 0.49850896 0.40694585 -0.17295088 -0.30006748 -0.06702984 -0.57783985 -0.09139274 0.6005052 0.5743434 0.021181518
27 -0.67334 -0.40831178 -0.10509044 0.20285966 -0.4560632 0.2726598 -0.18070397 0.5142548 0.60090023 0.13902827 0.22953 -0.33862528 -0.6318527 -0.06755107 -0.2720221 -0.47057804 -0.28917602 0.25164282 -0.81272435 0.026616607 0.23655534 -0.6558365 0.23576605 0.4084709 0.5526676 0.1909312 -0.33906856 0.5967196 0.45280215 -0.08744245 0.69137025 0.39369774 0.43596298 0.88336354 0.4307851 -0.2541264 -0.027526923 -0.26228422 -0.03210953 -0.5789832 0.35893294 -0.7660197 -0.2446408 -0.5466082 0.08984497 0.27656147 -0.68800056 -0.87584364 0.09832031 0.23129386 0.5630746 -0.4491505 0.100505486 0.38310933 0.011440437 -0.374113 0.31622815 -0.56604546 0.6307764 0.07737753 0.42575702 0.05426466 0.6188842 -0.8900761
192 0.16587862 -0.8502958 -0.434157 0.03786997 -0.5098857 0.3375716 0.12264923 0.883523 0.13942091 0.5022425 0.593306 -0.2790053 -0.28647703 0.11602644 0.1881091 0.1422696 -0.32843143 -0.23330644 -0.45467246 0.3692648 -0.47600463 -0.6901753 -0.0067383214 -0.7255895 -0.24191366 -0.31472892 0.327982 0.103857026 0.8777319 -0.560531 0.6973274 -0.31794932 0.7699774 0.49654895 -0.09260584 -0.05071686 0.18947026 -0.56166774 -0.21369356 0.05888598 -0.030021947 -0.5145507 0.04738877 0.008149237 -0.6404608 -0.5730383 -0.09482776 -0.5396788 -0.19311915 -0.26599893 0.3810006 -0.04712728 0.06453152 0.36741132 0.18732417 -0.028799245 0.16040015 -0.91992193 -0.4631173 0.30119666 0.112513624 0.7650867 -0.20838071 -0.1791586
156 -0.15698999 -0.10388996 -0.8881668 0.25197008 -0.692583 0.15976718 -0.42673975 -0.15274192 0.66714007 -0.003309634 -0.016403304 0.47888362 -0.3662108 -0.09495027 0.4753857 1.0106721 0.40104377 -0.33894348 -0.50923467 -0.3683559 -0.5440043 -0.3278667 -0.06724857 -0.018549867 -0.23157266 0.10503202 -0.24839404 0.2770735 0.77792925 -0.002801063 0.23073336 -0.3390294 0.6618693 0.54217273 0.2781363 -0.25074336 -0.49994564 0.1941605 0.015969459 0.092489116 0.2632325 -0.7267479 -0.36483073 0.37353423 -0.14947967 0.066723354 -0.004983157 -0.8600796 0.5001047 0.16341752 0.26654962 -0.072990716 0.53036994 -0.08513528 0.082404785 0.22762892 -0.34591082 -0.59122014 -0.22423817 0.6833397 -0.51825726 0.0912074 1.0493501 -0.45762616
302 -0.042624544 -0.74809796 -0.38366905 -0.04055145 -0.24593896 0.010840348 -0.012081414 0.29046425 0.12506829 0.9598188 0.7562705 -0.15865794 -0.40976855 0.3718378 -0.1396385 0.24028847 0.36188266 0.572469 -0.7091845 -0.43722588 0.036659524 -0.09609348 -0.6798522 0.31728786 -0.40476876 -0.2265972 -0.48694846 0.27436334 -0.054925922 0.22664747 0.9323259 0.08962731 -0.04616029 0.20301005 -0.047046226 -0.01908666 0.10496904 -0.30200818 0.35906166 0.028007418 -0.12937522 -1.0614415 -0.84674793 -0.7685256 -0.2779461 -0.036281742 -0.45950657 -0.8036619 0.7019294 0.38519457 0.26347303 -0.30111167 0.38107386 0.3490558 -0.22932528 -0.3799303 -0.69151837 -0.2533414 -0.4315175 0.37396017 -0.48497692 0.4552614 0.14469312 0.05110932
157 -0.26032016 -0.04765484 -0.99348694 0.35551018 -0.6901937 0.17903912 -0.28402063 -0.16767012 0.46045566 0.15938304 -0.02530098 0.46107256 -0.37623975 -0.42255923 0.48430774 0.8573458 0.39481091 -0.4830847 -0.57297295 -0.52496105 -0.30434588 -0.36190304 -0.21957174 0.16284089 -0.3639107 0.21910234 -0.35394588 0.33570793 0.9369585 -0.035647914 0.3302863 -0.30411023 0.67190415 0.48400715 0.33857408 -0.34903365 -0.49726957 0.109531716 -0.01830163 -0.031734407 0.11408327 -0.69496113 -0.4586492 0.4022193 -0.15735012 -0.06181431 -0.040660515 -0.77527183 0.35957614 0.13980015 0.18996726 0.036475766 0.5984424 -0.20575935 -0.024200905 0.3117161 -0.3435319 -0.7538667 -0.11921116 0.51773053 -0.516617 0.24428108 1.0412449 -0.37799767
270 0.13824119 -0.47555244 -0.20535657 0.38522676 -0.25257683 0.021250684 -0.7148638 -0.027000068 0.6602027 0.5015904 0.25682667 -1.0308414 0.05746162 0.06907188 0.31435844 -0.12078212 0.0808868 0.03735168 -0.6270226 -0.38810274 -0.3911569 -0.5106657 0.011043328 0.16305582 -0.15795909 0.34899372 -0.079700954 -0.6366553 0.15796816 -0.41322142 0.67937773 -0.49571523 0.00435379 1.0849363 0.41525647 -0.46074653 -0.13179184 0.25275168 0.5265486 -0.4175028 0.16274042 -0.22412339 -0.28670365 -0.0028084856 -0.83760196 -0.38838744 0.100110896 -0.29548678 0.7497189 0.6181824 0.7253166 -0.38941965 0.081983514 0.36679187 0.23830238 0.33037478 -0.17249073 -0.19005983 -0.090394594 -0.5765893 0.12149878 0.42978615 0.5509913 0.10002876
303 0.0031879111 -0.8624795 -0.2921404 -0.2767836 -0.21488133 0.1426794 0.019462023 0.2882171 0.17995252 0.8550888 0.78165495 -0.19887654 -0.31732702 0.38361242 -0.020060904 0.35038933 0.3941276 0.5211787 -0.6464257 -0.4667546 0.055317845 -0.2836141 -0.6572408 0.4515303 -0.4139155 -0.31799766 -0.3911964 0.23326191 -0.20739368 0.14029008 0.71055543 0.060484044 -0.13874619 0.16667686 -0.07019397 0.09322243 0.084078975 -0.37899733 0.41175616 0.10320683 -0.0633262 -1.102632 -0.87046766 -0.76404136 -0.13423513 -0.07327218 -0.4311179 -0.8010272 0.72558403 0.37583855 0.4774875 -0.3882395 0.48819703 0.26156455 0.010545165 -0.24764493 -0.7078941 -0.524932 -0.35593918 0.37052312 -0.5590933 0.4540081 0.05403611 -0.016429536
158 -0.17437509 -0.002022284 -0.8886696 0.32373443 -0.5970745 0.30519608 -0.50648785 -0.12559873 0.5546658 0.14062762 0.041069664 0.37453932 -0.5022985 -0.31373566 0.5142128 0.9813236 0.44751072 -0.5458627 -0.71971834 -0.28895468 -0.53761107 -0.49886537 -0.057801906 0.12584062 -0.31498984 0.20865414 -0.5767889 0.4097327 0.7669957 0.06827051 0.25074342 -0.25789443 0.5138309 0.4873763 0.24449423 -0.2809918 -0.70310324 0.22287959 0.14507551 0.1493699 0.10003678 -0.8449424 -0.2855049 0.4379067 -0.111278035 0.026565123 -0.06255851 -0.8468188 0.42335835 0.111043856 0.3808788 0.080201656 0.6872243 -0.25321716 0.0044471705 0.23719756 -0.25642228 -0.81350905 -0.065801196 0.46410924 -0.4651121 0.13961412 0.77638924 -0.3741929
271 0.047881156 -0.55100626 -0.17312072 0.48726264 -0.22339547 0.12823105 -0.4856613 0.014489044 0.6904752 0.48628455 0.24106506 -0.9601833 -0.1280506 -0.053019688 0.2099171 -0.16188182 -0.0343379 -0.16219476 -0.69812673 -0.33265746 -0.52231306 -0.4930634 -0.036629535 0.3155918 -0.12381511 0.38549086 -0.085446246 -0.6688405 0.15209152 -0.49680954 0.69932914 -0.50282156 0.098175004 0.9963071 0.5013704 -0.13306777 0.018324442 0.3601347 0.64442945 -0.39600703 0.37300563 -0.123470426 -0.36797315 0.055021394 -0.7555209 -0.46887025 0.007872567 -0.17860402 0.8902531 0.46886936 0.8228442 -0.32384205 0.0764837 0.56876516 0.22708462 0.36261228 -0.3949364 -0.18330814 -0.11393186 -0.51082456 0.045633696 0.40072164 0.5084876 -0.061853405
115 -0.03198862 -1.0538303 0.63279253 1.0143716 -0.8908989 0.15944035 -0.6098008 0.5693249 0.7408565 0.02795074 -0.4826502 -0.0990702 -0.37841284 0.026739374 0.38278905 0.18067792 -0.26319772 -0.02339183 -0.14702608 -0.33136433 -0.64195806 -1.005902 0.72285306 0.098146506 0.2916305 0.52067584 -0.010191233 1.0234432 0.6077552 0.039680187 0.6310907 -0.22474445 0.5692404 0.35142905 -0.68509686 -0.25774854 -0.19647679 -0.3081382 0.42350233 -0.6156913 -0.26366407 -0.08748057 0.6123704 0.16802071 -0.5996107 -0.28801084 -0.31461692 -0.94689745 0.25357273 -0.46111125 0.24968906 0.8281885 -0.6160945 0.43410128 0.42935154 0.8428105 0.94519454 -0.40271142 0.14885102 0.20313007 -0.15691194 0.6292615 0.73009485 -0.3241787
96 0.9071046 -0.6054529 -0.29273045 0.3608882 -0.33933288 0.05993835 -0.07477515 1.077285 0.3830425 -0.049940057 -0.27022564 -0.06222358 -0.015382144 -0.44608584 -0.11906245 0.16986401 0.048096653 -0.18842077 -1.35461 0.026079578 -0.9942247 0.09834373 0.42969424 -0.4803915 0.54167336 -0.12398494 0.062147774 0.20433155 0.6705587 -0.23540218 0.42305878 0.17664373 0.5034235 0.12589471 0.4572748 -0.61025786 -0.4705497 -0.19023907 0.07075868 -1.1980445 -0.38844466 0.11598436 -0.7393842 0.04459495 -0.04947314 -0.2755717 -0.676231 -0.8666903 0.5609551 0.36779815 0.5936911 0.15319684 0.11934841 -0.07296243 0.55011344 0.390504 -0.0844919 -0.24591136 0.36334783 0.030931942 0.07815057 -0.056529697 0.3488559 0.116956145
193 0.16783164 -0.778146 -0.4772135 -0.025496488 -0.5583748 0.12868941 0.11283749 0.78180045 0.15515256 0.4885358 0.48547864 -0.36926195 -0.24215402 0.28357837 0.2701442 0.15323393 -0.40496016 -0.32988733 -0.6525147 0.53051525 -0.4562348 -0.7316892 -0.022583712 -0.7626589 -0.15733589 -0.32966432 0.19732486 0.093169644 0.8785352 -0.4846252 0.8012445 -0.29839113 0.82796633 0.48992315 -0.25739965 -0.05751198 0.0852768 -0.36951518 -0.049741514 -0.0053157085 0.045790885 -0.41930336 -0.008383439 -0.102528565 -0.5967892 -0.3365013 -0.12341555 -0.49704432 -0.29348162 -0.4044496 0.47970608 0.054511745 0.061114978 0.5312519 0.07549576 -0.035387762 0.2503889 -0.9474376 -0.4864676 0.22610335 -0.038420353 0.9035584 -0.21320866 -0.063990615
